9996 16
the -0.07449117 0.033921856 0.0013823861 -0.029429385 -0.12494912 0.07118195 -0.035608172 0.005123574 0.011469661 0.051025953 -0.040461406 0.07026997 -0.07267328 -0.035968035 0.08222938 -0.07830643
and -0.08981027 0.14705811 -0.16022284 -0.017255109 -0.10367674 0.07581461 -0.1002301 -0.0012368262 -0.029226225 0.068361916 -0.07207981 0.11623373 0.030575743 -0.13451381 -0.0193521 -0.07500246
a -0.15269746 0.043807812 -0.080886394 -0.010019858 -0.057567663 0.044968583 -0.09572684 0.054462597 -0.0740233 0.058531843 -0.03119521 0.104665205 -0.06128618 -0.063217506 0.08281312 -0.0066812746
of -0.06854921 0.09193332 0.015288562 0.034132067 -0.15065147 -0.0104162395 -0.075090066 -0.06287207 0.06914367 0.061998 -0.03220681 0.060249444 -0.028452452 0.017861677 0.033901673 -0.061121877
to -0.117699414 0.027932 -0.043553095 -0.017723491 -0.065921396 -0.009675661 -0.11051663 -0.023020579 0.0070617693 -0.011859016 0.020454964 0.038341105 0.039560284 -0.0031385936 -0.02984845 0.016387464
is -0.06890512 0.0075020054 -0.048502494 -0.010110843 -0.048532188 0.09189619 -0.07051047 -0.001383297 0.042156074 0.07513957 -0.0076567694 0.015181784 -0.06526869 0.017043004 0.063393235 -0.0045483033
br -0.10945609 0.112887345 -0.05816956 -0.06273234 -0.105906434 0.030502394 -0.026346952 -0.014888553 -0.0074251834 0.045483764 0.058198392 -0.04039607 0.027038539 -0.024205975 0.032674145 0.023118539
in -0.06937192 0.033670306 0.0030356147 -0.002057661 -0.15687023 0.01869817 -0.09161623 -0.023576159 0.12556088 0.077148795 -0.083308965 0.020784967 -0.069954745 0.0070542307 0.09537829 -0.025495876
it -0.023459688 0.031439703 0.06861916 -0.06792459 -0.12968294 0.06975511 -0.10729575 -0.044530872 0.03333886 0.083422035 0.017408283 -0.0027642096 0.0028433958 0.030882016 0.012205899 -0.06404245
i -0.08591132 -0.0043148566 -0.107554786 -0.049300306 -0.06134571 0.005165605 -0.03895318 0.07512442 -0.025898254 0.014886368 0.13013688 0.052155584 0.016620684 -0.05648079 -0.0067493245 0.057747185
this -0.1304857 0.11912684 -0.029644027 -0.03535237 -0.1592196 0.0082618045 -0.037446555 -0.04612127 0.14216408 -0.040705692 0.07874396 -0.04546471 -0.036547203 0.004974468 -0.014561244 -0.00044860417
that -0.06232947 0.0073582497 0.03283606 -0.05271555 -0.16354662 0.07131513 -0.00292948 -0.12416778 0.14727002 0.039596338 -0.0027787786 -0.045452803 -0.084568866 0.048853386 0.08257248 -0.025621999
was -0.106166594 0.08921502 -0.028931547 -0.027029166 -0.041970715 0.04866496 -0.0701284 -0.029781904 0.0043049 0.06901891 -0.02687612 0.050707318 -0.0013097966 0.004571242 0.022035906 -0.031574864
as 0.05806182 -0.06867251 0.09032567 0.027122496 -0.1727922 0.017499333 -0.023086395 0.0029486178 0.022462089 -0.020647218 0.011960626 -0.07895573 -0.04417783 0.039685562 -0.050197273 0.018625204
for -0.11509797 0.035045795 -0.0030717605 0.040824227 -0.12538809 0.0060174298 0.006578218 -0.001749387 0.055390555 0.05165919 -0.052303456 0.027145991 0.01829707 0.025110018 0.029349798 0.038928095
with 0.027218493 0.029987466 0.07363939 -0.07759406 -0.08114935 0.019514108 0.001128385 -0.0476447 0.03883196 -0.03946475 0.00073300675 -0.02190414 0.012539106 0.060356237 0.014573356 0.016829202
movie -0.0006613815 0.069532275 -0.0019445085 0.01782325 -0.10820702 -0.018047214 -0.03393488 0.007867017 -0.009244334 0.034255162 0.009874143 0.013877118 0.058855046 -0.056346226 0.0016605376 0.00693919
but -0.09743122 0.07686321 -0.071471535 -0.031811435 0.041028205 0.007860392 -0.05581333 0.011905344 -0.066212706 0.052056607 -0.06514262 0.075558156 0.049878243 -0.07910638 0.015305475 -0.022981359
film -0.08550394 0.029801082 -0.045416843 -0.04951965 -0.09783158 0.02449791 -0.106204905 -0.030570352 -0.013961231 -0.0102015305 -0.037484616 0.06785936 -0.053531732 -0.050070547 0.008221652 -0.032629486
on -0.1142105 0.105591126 0.05152217 -0.07361584 -0.15624802 0.10456483 0.014002335 -0.002274492 0.112087004 0.018582596 0.0066742026 -0.02333232 -0.12685063 0.033441972 0.041898068 -0.06896164
not -0.035559557 0.0023734027 0.073101155 0.029933995 -0.19137843 -0.049377803 0.032406874 -0.0744338 0.06532783 -0.02778123 -0.00715945 -0.00866162 -0.017191602 0.05713207 0.0013598065 0.027602883
you -0.1393402 0.1036563 -0.10366622 -0.0786918 0.07472509 0.05269143 -0.08113299 -0.016115561 -0.028553145 0.12824778 -0.04055834 0.044753887 -0.057240948 -0.09878953 0.09817455 -0.045313954
are -0.05758814 0.07782614 -0.027742494 -0.04350743 -0.023337822 0.034105152 -0.032805722 0.017129906 9.269935e-05 -0.012830537 0.05903456 0.03367571 -0.052618943 -0.02647322 -0.008295353 0.0349956
his -0.093237326 -0.02509999 -0.01664477 -0.021522157 -0.024193754 0.092413545 -0.10768184 -0.11208891 0.09164868 0.09641217 -0.14780138 0.04579165 -0.09216969 -0.0050053457 0.03923267 -0.07203202
have -0.06496871 0.016054168 -0.057201225 0.04181325 -0.02715933 -0.0033552996 0.04244387 0.09940811 -0.07337233 0.00745981 0.021524087 0.016659722 0.06104528 -0.037111964 0.005348629 0.042664245
he 0.04655274 -0.06356669 0.032755516 -0.027554065 -0.07317231 0.0196739 0.034590438 0.012416498 0.077135704 0.012236536 -0.019518888 -0.037915833 -0.0469656 -0.018740857 0.050269112 0.021898894
be -0.04990654 0.09261309 0.009219775 0.015393008 -0.03330064 0.071840696 -0.03734012 0.014774658 0.092010505 -0.02671888 0.042182326 0.014432484 -0.06547125 0.013728197 0.03619308 0.0374442
one -0.07351696 0.07286027 -0.0001129639 0.011057885 -0.06662076 -0.0076324395 -0.033994477 -0.08197654 0.011824635 0.05559569 -0.04512825 -0.025283534 0.069597684 0.037379824 0.005861064 0.020020977
all -0.09521084 0.054272845 -0.052999653 -0.007088843 -0.0476345 0.05865154 -0.046624597 -0.040958755 0.08562714 0.05973888 0.0059045935 0.023368863 -0.039027225 -0.049557254 0.07961712 -0.051761303
at -0.10895848 0.08768332 -0.086109854 -0.07270353 -0.018002862 0.030344013 -0.056175746 0.0037987921 0.049805712 0.065992266 0.016553193 0.0681323 -0.040244043 -0.037443083 0.070372865 -0.027235867
by -0.027672922 0.044871714 -0.05855845 -0.05283432 0.04293943 0.03786583 -0.010385555 0.020607729 0.020600153 0.0046310313 0.00097414287 -0.029329622 -0.041378327 -0.033766594 0.05324582 0.012086077
an -0.014853394 -0.028617654 -0.049037546 -0.038524866 -0.045852154 0.04371338 0.012737806 -0.063957244 0.06545949 0.035041824 -0.028441293 0.06631152 -0.053064067 -0.009327577 0.007763118 -0.028552167
they 0.008067581 -0.025033273 0.011528539 -0.008742525 -0.060071528 -0.0348123 -0.036646917 0.007317451 -0.013912697 -0.0071988106 0.0063446374 0.0039718985 0.06603442 0.037966095 0.015771337 -0.006517275
who -0.042721074 -0.028711759 -0.029483298 -0.07694636 -0.0008476537 0.07564463 -0.079893254 -0.064180814 0.052922994 0.015928837 -0.091355294 0.06551568 -0.054607756 0.02732807 0.10141222 -0.036166564
so -0.07356277 -0.02706991 -0.06616183 0.07057761 -0.10432565 -0.033872284 0.08851647 0.123769745 -0.0073526944 -0.08628118 0.048564978 -0.09964797 0.0010547261 -0.0042223777 -0.023496985 0.12525342
from -0.10429175 0.027933478 -0.03149225 -0.034254167 -0.057946634 0.04608146 -0.061724834 -0.07892425 0.09948297 0.01671211 -0.02399013 0.015132084 -0.030954208 -0.025017297 0.058139328 0.030150084
like -0.080695406 0.058088765 -0.08190602 -0.046965122 0.083625965 0.07049279 -0.1068608 0.02102249 -0.028455526 0.087703675 -0.05315559 0.04391839 -0.062333368 -0.087401085 0.0109223025 -0.08373555
her -0.081742436 0.030711347 -0.0451187 0.024696182 0.019692637 0.05390626 0.011360994 -0.00042757072 0.02331257 0.025538076 0.005884899 0.010059899 0.011214762 -0.0546679 -0.017960107 -0.024729194
or -0.009033182 0.017823007 -0.1072411 0.01677522 -0.05388476 0.02797314 -0.038126417 0.04860664 0.010759832 -0.029043147 -0.031472977 -0.015453965 -0.08106674 0.01108003 -0.030164182 -0.004091072
just 0.007944402 0.042843804 -0.051167555 0.037849378 -0.017053027 -0.02580694 0.039000127 0.13679013 -0.0045725517 -0.0154811125 0.04178457 -0.036861163 0.03547459 -0.02553142 -0.062077627 0.11062763
about -0.030619305 -0.007121331 0.03313034 -0.04447874 -0.058215484 -0.0022029022 0.0022906587 0.033316135 -0.0018107193 0.022484139 0.078392245 -0.06369145 0.0015698444 0.07397913 -0.028710695 0.034710843
it's -0.058502607 0.04739899 -0.07786872 0.06192601 -0.100279726 -0.0779896 -0.022205766 -0.015706362 0.0029722343 -0.03864793 0.07434397 -0.029710157 0.015003206 -0.026068166 -0.08098401 0.03815665
out 0.044913337 -0.051047213 0.066910155 0.11032233 -0.131735 -0.16436155 0.009219136 -0.06912901 -0.01970106 -0.11828751 0.04291255 -0.06889251 0.10114297 0.1497297 -0.058076244 0.07842239
has -0.04491138 -0.051061664 -0.043551277 0.013775034 0.005914019 -0.04055541 0.062898755 -0.04544568 0.022770263 0.0047530266 0.016503928 0.007490773 -0.04716751 -0.0008477612 0.045790903 -0.012860408
if -0.10203098 0.06607967 -0.15640478 -0.06275157 0.030096794 0.043725353 -0.08140166 -0.035557732 0.011473448 0.12637736 -0.06516504 0.08793421 -0.048768576 -0.11815948 0.04017419 -0.10597925
some -0.055857126 0.0010366421 0.00051730196 -0.0037999214 -0.12809047 -0.02427875 0.021155788 0.060807377 0.04611038 -0.01703657 0.037823502 -0.051801473 0.023535226 0.08246681 -0.07225405 0.046786908
there -0.12102139 0.02510795 -0.010923888 0.021944143 -0.073974244 0.0030183324 -0.009190415 -0.01296178 0.11832659 0.028068298 -0.03760014 0.034424525 -0.08158054 0.015503861 -0.014974284 -0.0129858265
what -0.092182346 0.053675763 -0.02566355 -0.07805596 -0.09076673 0.10421586 -0.011359367 -0.009934938 0.043492254 0.059068542 -0.104633756 0.07919591 -0.1309355 -0.016120056 0.1192641 -0.08964564
good -0.07718729 -0.01819819 -0.019874556 -0.055683766 -0.08758662 0.049852185 -0.09892128 -0.13022009 0.18854879 0.054647237 -0.120099805 0.100760244 -0.07546959 0.04821949 0.04633084 -0.08186164
more 0.011271517 0.011108327 -0.07756683 -0.00061782304 0.036052953 -0.040506262 0.014436946 0.0048644077 0.02077262 0.010235366 -0.0031038744 0.019395372 0.008759552 0.023871783 -0.056163322 -0.011463719
when -0.035835996 0.058070242 -0.12833205 -0.04242402 0.069567144 -0.002184035 -0.047929306 -0.07559051 -0.026381321 0.07991034 -0.059088722 0.013941327 0.015417946 -0.04279168 0.026453074 -0.00039051482
very -0.012341013 -0.017168261 0.0017354966 0.018916467 -0.13377371 -0.028418073 -0.052407052 -0.0497553 0.06605017 0.05171713 0.021631356 0.046002917 -0.03221428 -0.030594602 0.019418769 0.030441174
up -0.070586406 0.022557355 -0.055489205 -0.036665887 -0.049196854 -0.0038307202 -0.034986958 -0.019499572 0.030950127 -0.009357756 -0.01623651 0.061914384 -0.006623694 -0.05214408 0.045874707 -0.055436943
no 0.015647888 -0.0151832355 0.025711818 0.033091724 -0.1484707 -0.07306699 0.053765494 0.024080131 0.08320011 -0.042994194 0.118435726 -0.012412603 -0.052136924 0.13073523 -0.08381698 0.13027434
time 0.009639067 0.011488812 0.014176892 0.07327357 -0.06541615 -0.07552194 0.0014076732 -0.057688996 0.018298574 -0.00300556 0.060485072 0.028649934 0.08936702 0.041855857 -0.05057356 0.06725246
she -0.0680263 0.07665051 -0.021101255 -0.04927257 -0.00070313417 0.08098655 -0.096641295 -0.024917584 0.06443021 0.087417744 -0.09294667 0.06589587 -0.07765209 -0.0477923 0.03991723 -0.07610106
even -0.007735325 0.006165904 -0.0770573 -0.00011671842 -0.099163644 0.042839676 0.019174015 -0.012450419 0.041494485 -0.033014454 0.043038953 0.022720132 -0.05664919 0.008217951 0.055731636 0.04434197
my -0.16077104 0.1308342 -0.07314871 -0.0945984 -0.021229453 0.046519373 -0.09525634 0.09894018 0.014964879 0.08844498 -0.0090633165 0.046911277 -0.00046714887 -0.1517161 0.092543304 -0.023328925
would -0.08547709 0.09365832 -0.04743999 -0.08580943 0.02102156 0.05440011 -0.09967716 0.032857582 0.03397279 0.054234073 -0.033274014 0.040898096 -0.0778108 -0.04664222 0.085631706 -0.039645433
which 0.019898256 -0.040756796 0.0755018 -0.01026131 -0.060147572 -0.0071720895 -0.052491106 -0.0301311 -0.0027579083 0.009437699 0.04740178 0.028665842 -0.031967595 0.03862434 -0.010792469 0.05115761
only 0.013432688 0.0307889 -0.008697836 0.04257138 -0.017923161 -0.0007326144 -0.023144936 0.0170787 -0.08893696 -0.05260281 -0.0015371618 0.01289582 0.01650408 -0.026147636 -0.040155225 0.0762561
story -0.037493557 -0.021033568 0.010851355 -0.041226864 -0.013282061 0.067711964 -0.08645966 -0.012531469 0.05886029 -0.004182703 -0.09882902 -0.027013617 -0.007522891 -0.014283383 0.01097477 -0.04069658
really -0.03112655 0.05469977 -0.03477987 0.017346192 -0.12553662 -0.01591989 0.0021446003 -0.03861207 0.056896232 -0.03265163 0.058710217 -0.056014184 0.06463084 0.016841656 -0.030697787 0.030146051
see -0.07871299 0.023913775 -0.0034469008 -0.057579722 -0.026650738 0.030688189 -0.030595591 0.008151661 -0.010485563 0.04497647 -0.02049389 -0.01339948 -0.0073171053 0.004304986 -0.00020843727 0.02069032
their -0.19825652 0.15159181 -0.17130065 -0.09730979 0.17360151 0.13979562 -0.15138695 -0.018047728 0.024512667 0.09430699 -0.0454044 0.19334158 -0.01925272 -0.14943309 0.045503654 -0.08491981
had -0.07349302 0.075624526 -0.021128595 -0.070691265 -0.02817602 0.094525106 -0.053364754 -0.03141687 0.09582166 0.1274125 -0.09428082 0.07511752 -0.05697754 -0.05277404 0.116421595 -0.08575124
can -0.0046509705 -0.006027685 -0.013341411 -0.053528663 -0.016457798 0.028170083 0.027549315 0.037262667 -0.009251243 0.00050898886 0.04141541 0.023951003 -0.0631941 0.023637576 0.038746372 0.0703675
were 0.022567796 -0.046100408 0.081565924 0.013966996 -0.03531599 -0.027925141 0.056890547 0.004630016 -0.01961159 -0.06688642 0.048483513 -0.072891645 0.038325127 -0.020919297 0.03394572 0.009859511
me -0.017145455 0.022080213 0.05728188 0.027646776 -0.11846384 -0.056154016 0.021068403 -0.018201416 0.05064144 -0.051979523 0.01582416 -0.007747105 0.028808525 0.05134582 0.011409831 0.07743811
well -0.17847177 0.1086747 -0.13037741 -0.17950717 0.10215057 0.1868581 -0.15662947 0.004984479 0.04014616 0.19260898 -0.13390948 0.13962267 -0.15477316 -0.17808528 0.13617831 -0.12407645
than -0.087200664 0.057111375 0.042298276 -0.04256133 -0.060030576 0.031427465 0.034841567 0.012643413 0.056869775 0.04702713 -0.038626865 0.034484494 -0.036474798 -0.012941848 0.043162957 0.0012928077
we -0.028462308 0.02087127 -0.055544477 -0.022704791 0.056277182 0.0055882586 -0.106263906 -0.045425005 0.007405118 0.06886977 -0.06504139 0.115334325 -0.03641489 -0.023656853 0.08585555 -0.08929612
much -0.012464849 0.0050894683 -0.038809385 -0.020437455 -0.08339016 0.04642438 -0.041310728 0.0039230906 0.026666995 0.022046845 -0.01225171 0.012947092 0.01870936 -0.050388567 0.072984554 0.017439593
been -0.10791656 0.061085768 0.025452888 -0.08486626 -0.08394822 0.037728842 -0.047501307 -0.06242451 0.15593608 0.080706604 -0.08178046 0.06699619 -0.03196807 -0.08801031 0.07818281 -0.051874336
bad -0.015579854 0.061920412 0.0013733006 0.087083444 -0.12974748 -0.2010772 0.08909747 0.061290365 -0.088022195 -0.14258927 0.16715674 -0.12067306 0.26922637 0.029353967 -0.17883554 0.16078998
get -0.04690111 0.0901696 -0.07604611 -0.014096459 0.073307216 0.031536523 0.026412098 0.08377543 -0.114583775 0.036763117 0.0279361 -0.045021597 0.054740798 -0.025412435 -0.005979621 0.029615754
will -0.09360146 0.06805 -0.05975352 -0.081774764 0.06718968 0.06386609 -0.09446506 0.007867582 -0.053159196 0.060663797 -0.017151726 0.044764746 -0.021112224 -0.01047809 0.04396737 -0.025396643
do -0.048609935 0.0012925942 0.062048845 0.00575041 -0.008425407 0.039202794 0.013422481 -0.09916966 0.0059151785 -0.0070847 -0.048070043 0.0071476847 -0.07729456 -0.014976856 0.039391033 -0.06532847
also -0.043959443 0.08401372 -0.109133005 -0.009515267 0.06655582 0.0407898 -0.037871666 0.022468101 -0.013819052 0.07828772 -0.017304858 -0.007194919 0.022126624 -0.06837555 -0.024492191 -0.038663175
into 0.0215638 0.0067074257 -0.034123745 0.005217551 -0.037744053 -0.00020672125 -0.011251246 0.016711144 0.009377856 0.04007805 -0.05110388 -0.021520115 -0.022489173 -0.005206916 0.047088213 0.017536893
people -0.026509931 0.016680017 -0.052993964 0.006546976 0.015729243 0.0019197305 -0.034092613 0.005053887 -0.061661046 0.015394578 -0.040117078 0.076159835 0.10439626 -0.01754068 -0.06106292 0.019371714
other -0.105813675 0.057216015 0.02211078 -0.051214147 -0.010707979 0.091685705 -0.106097944 -0.06034826 0.06764443 0.09040008 -0.042523317 0.023073835 -0.098185055 -0.013078095 0.09774554 -0.08508975
first -0.017485889 0.032411885 0.10559317 0.028278725 -0.07060741 -0.07519303 0.06874838 0.03596014 -0.049841113 -0.0037977798 0.015436924 -0.08107655 0.07135127 0.071390815 -0.009866694 0.022335416
great 0.007235668 -0.044200007 0.046377957 -0.06652655 -0.13955122 0.07098725 -0.082245484 -0.21690202 0.2068348 0.06091563 -0.12726033 -0.0028237482 -0.104655355 0.090708315 0.053457562 -0.10143209
because -0.016997417 -0.027884481 -0.067894675 -0.05338335 -0.034042407 -0.0013556902 -0.044204134 -0.016345413 0.008941184 0.0130489925 0.07040894 0.027879456 -0.0462278 0.016671926 -0.056202557 0.041235458
how 0.04846936 -0.021559462 -0.021547318 0.08660466 -0.10240705 -0.040560067 0.031571966 0.011792824 -0.050326653 -0.021049641 0.030578913 -0.08513296 0.082386956 0.070532024 -0.1240672 0.08767979
him -0.016993033 0.07939287 -0.059422605 -0.07125352 0.019669482 0.053066976 -0.061300073 0.10160645 -0.043962866 0.08555648 -0.076662816 0.026901066 0.010134306 -0.05151555 0.001573818 -0.007357073
most -0.05104739 0.07451062 -0.006133062 -0.020899242 0.039490644 0.056811992 -0.014633241 0.023632605 -0.010263612 0.02221893 -0.072644144 0.032126408 -0.011134519 -0.014138743 0.067858726 -0.07324609
don't -0.021897513 0.07591607 -0.16123532 -0.016817734 0.06497117 0.025744498 0.023287961 0.10908153 -0.022807013 0.048072603 0.06802464 0.030209621 -0.006825251 -0.03503205 -0.0011474269 0.05492412
made -0.024834007 0.014538642 0.0014099431 -0.0889052 -0.06995533 -0.008067956 -0.0489909 -0.02786125 0.08105 0.061743572 -0.049206983 0.02048455 0.007994617 -0.045995496 0.025445435 -0.031346574
its -0.16049384 0.085514374 -0.10014677 -0.15798475 0.124688566 0.1621958 -0.16189608 0.02283995 -0.04744358 0.08595866 -0.1159216 0.15071249 -0.098222174 -0.16106193 0.14090511 -0.09680026
then -0.047107562 0.027129726 -0.046601553 -0.013840826 0.060326464 0.031125141 -0.019617602 0.013465561 -0.006424921 0.011557487 -0.030597545 0.022531876 -0.022891387 -0.031732477 0.0042896136 0.035794437
way -0.049970187 -0.008757415 0.03612324 0.01866104 -0.14492339 0.021329822 0.016295286 0.014938881 0.064948045 -0.055297036 0.06392716 -0.059394136 -0.056768928 0.0055729263 -0.05371351 0.007553142
make 0.050519902 0.0145133715 0.021715218 0.04075017 -0.034796283 -0.09222885 0.058171727 -0.027729066 0.026855113 -0.04950237 0.09129107 -0.029175699 0.026165344 0.083152 -0.064548455 0.046365295
them -0.09173819 0.042870365 -0.06561004 -0.08109126 0.08347489 0.16861436 -0.06849183 0.007069094 -0.014416334 0.083587416 -0.097998254 0.1139169 -0.095756724 -0.06810148 0.15839241 -0.097120024
too -0.12875754 0.15794463 -0.18332018 -0.090997525 0.069122225 0.05718152 -0.12239771 0.07121628 -0.019905128 0.11236371 -0.018991131 0.15788423 -0.07365929 -0.1194369 0.081823 -0.08347464
could -0.03092366 0.08604169 -0.0769484 -0.061922383 0.06663722 0.018489389 -0.06807324 0.012746621 -0.055771228 0.0061573605 0.055358414 -0.0072845146 0.05413351 -0.08907244 0.038424384 0.0106676845
any -0.056499008 0.0590609 0.019348066 0.06950597 -0.060774554 -0.021054463 0.015480123 -0.0356308 0.014422769 -0.072547294 0.02350931 0.004954526 0.015268767 0.020109558 -0.09942504 0.076302975
movies -0.027109073 0.053879634 0.01346873 0.03476704 -0.070465356 -0.0582555 0.016684458 -0.018293364 -0.030456018 -0.033655416 0.04701896 -0.04900645 0.049116783 -0.015850555 0.033606786 0.041809928
after -0.14863159 0.10321966 -0.13751733 -0.060127743 0.07820452 0.14284109 -0.12752292 0.024989137 0.036215745 0.08173179 -0.13505264 0.10818549 0.008275674 -0.123040475 0.055373073 -0.06538261
think -0.00971948 0.02842351 -0.012274191 -0.017914608 0.038395677 0.017436573 -0.0658519 0.0169399 -0.05991336 0.00803184 -0.032599937 0.031582728 -0.038926776 -0.0107969735 0.009191753 -0.05266595
characters -0.09476644 0.044101685 -0.057618722 -0.093825676 0.074813545 0.09858575 -0.11015409 -0.06575941 0.099106126 0.08232857 -0.15624435 0.084847406 -0.027793258 -0.10417007 0.05988872 -0.08253656
watch -0.09456149 0.10742741 -0.0077864756 -0.07453299 -0.013707549 -0.0029176443 -0.052221555 -0.019257583 -0.0059283054 -0.002184501 -0.032752983 -0.020726396 0.10004861 -0.07061183 -0.01919952 0.045637444
two -0.060618337 0.03994113 -0.028765822 0.016919494 0.024266962 0.028669536 0.053257134 0.065051734 -0.0377639 -0.038317215 0.012350735 -0.03456868 -0.008786413 -0.045931414 0.044474836 0.00085528375
films -0.06203993 0.11892297 -0.013910902 -0.12134658 0.023157155 0.09417518 -0.02979689 -0.072378255 0.054838527 0.061773874 -0.018919107 0.036366303 -0.06859636 -0.08684715 0.07860572 -0.045362752
character 0.044297587 -0.005169981 0.014891865 -0.0055469563 -0.04011412 0.012659504 -0.025625002 -0.0001322926 0.007860001 -0.0017155941 0.0039759735 -0.061637737 0.0064776693 -0.024670169 -0.007750076 0.043429315
seen -0.03237782 0.042408444 -0.06453622 0.03871363 0.026119074 0.017416038 -0.046352066 -0.005142247 -0.036244854 0.018318683 -0.010766282 -0.02278822 0.025903514 0.058461376 -0.022062838 0.026989037
many -0.03096049 0.006562899 0.008798854 -0.08236982 -0.035307728 -0.0377658 -0.053132683 -0.054803092 -0.008901998 0.014779893 -0.0543338 0.0186062 -0.012681719 -0.034500092 0.016904 -0.032415677
being 0.018769557 -0.13339807 0.056680772 0.038057014 -0.17678246 -0.023800513 0.026170718 -0.14847073 0.1511321 -0.044888977 0.034939025 -0.097804606 -0.12689303 0.16072562 0.0032375916 0.038079947
life -0.036522113 0.10847024 -0.055262435 -0.06495887 -0.0012854689 0.074796356 -0.09396989 0.044102248 -0.06092084 0.047952723 -0.016341528 0.04200722 -0.05671218 -0.0920432 0.03265014 -0.05085755
plot -0.03865811 0.104516834 -0.022717305 0.08180947 -0.0049589598 -0.020115959 -0.004627756 0.05606025 -0.12920481 -0.067674965 0.0600865 0.0042557796 0.0960274 -0.05174775 -0.08487129 0.0802769
never -0.004800273 0.008647178 0.07199182 -0.031813543 -0.09732213 0.006625988 0.0047916127 -0.11356214 0.10581394 -0.057553813 0.013595053 0.03245718 -0.11304905 0.087115265 0.059867013 0.03233337
acting 0.013788726 0.0073727253 0.0021118468 -0.06167751 -0.10533735 0.041368175 0.011053067 -0.038706243 0.0731589 -0.038592678 -0.005532357 -0.055809904 -0.06599611 0.017731914 0.056124948 -0.015658475
little -0.04894902 0.059596535 -0.081163816 -0.09566535 0.085919075 0.14548765 -0.06418002 -0.0022937853 0.07249154 0.10707478 -0.1265285 0.09968855 -0.063138865 -0.04394405 0.085727796 -0.119570926
best -0.037148356 0.059797194 0.038152874 -0.05738211 -0.026147146 0.09922623 -0.07254305 -0.099088885 0.006432084 0.10659853 -0.08716323 0.106379636 -0.1339021 -0.057303008 0.11855886 -0.07652338
love 0.013068569 0.021549193 0.07967087 0.034610897 -0.0527745 0.006002888 0.0040180814 -0.12771177 0.009957321 -0.0057619317 -0.070931055 0.027442979 -0.037099697 0.014531247 -0.024317512 0.004285724
over -0.0032753008 0.05502496 -0.030861266 -0.062107503 0.06936356 0.033976357 0.03987639 0.04833041 -0.051068332 -0.020394774 0.08696054 -0.041631993 0.030602548 0.046797257 -0.030532843 0.075990655
where -0.013255821 -0.06239522 -0.05202133 -0.039631218 -0.031054877 0.0333248 0.03580653 0.0066991188 -0.035279162 0.013994522 0.008287222 0.013286574 0.025258139 0.05847537 -0.04474977 0.054958414
did -0.072980024 0.18253405 -0.17071855 -0.085613966 0.12049298 0.022842094 -0.026045924 0.043544203 -0.09063233 0.034545448 -0.05299976 0.031902056 -0.022861067 -0.10223139 0.041259505 -0.047045007
show -0.10847933 0.041997954 -0.057375893 -0.002133503 0.032722726 0.07960222 -0.06927782 -0.08123036 0.064304434 0.073103696 -0.073676884 0.0483524 -0.05583852 -0.0023784593 0.028133482 -0.074322775
know -0.011978968 0.03588443 -0.07637703 -0.1039917 0.0017122654 0.05830957 0.010152771 0.015325436 0.03511166 0.00094625173 2.5638947e-05 0.013146551 -0.06688119 0.0056308033 0.103145406 0.007398522
off -0.0567161 0.0016114175 -0.03142223 -0.041788965 0.029704846 -0.025917033 0.05084529 0.05551289 -0.0858175 -0.0013445549 -0.030664729 0.018624147 0.011769516 -0.050993852 0.037572954 0.041575428
ever -0.0005286903 0.0746969 0.016223082 -0.0017417868 -0.14154318 -0.08338352 0.015766144 0.06535206 0.022162454 -0.033011615 0.016158776 -0.031203805 0.026789613 -0.014168421 -0.019449046 0.037974223
does -0.0065626823 0.012616461 -0.040778857 -0.054755002 0.046099946 0.083569705 -0.08725118 -0.07190937 0.07560355 0.12209539 -0.08250728 0.07363081 -0.11630836 -0.036148135 0.07680628 -0.04727787
better -0.02916876 -0.014012369 0.018192163 -0.013355977 -0.047342822 0.04710918 -0.055030737 -0.094193764 0.18284753 0.082340315 -0.096028194 -0.015096212 -0.108422205 0.045745537 0.08110889 -0.05247305
your -0.06968854 0.037877448 -0.039287888 -0.05574515 -0.06419828 -0.03962938 0.05167869 0.085575685 0.06970247 -0.011963703 0.013003477 -0.0041506262 -0.058328632 -0.02603643 0.04413612 0.01891015
end -0.035996858 0.017889274 -0.0235349 -0.079578035 0.05202583 0.09491708 -0.06273785 -0.00606764 0.040432323 0.06243553 -0.069580205 0.044094224 -0.06951923 -0.109732985 0.08131222 -0.02492044
still -0.10545708 0.08669102 0.016590735 -0.13132718 -0.024232345 0.12082519 -0.14996694 -0.18879093 0.24005099 0.1776911 -0.21723449 0.15167272 -0.16708803 -0.046027936 0.19931255 -0.1649038
man -0.057548214 0.022373226 -0.09757347 -0.027844314 0.07220373 0.08833143 -0.07979124 -0.0059520393 -0.0013499358 0.060501914 -0.010411467 -4.264728e-05 -0.07597613 -0.08611156 0.041272238 -0.043327287
here 0.08861101 -5.6826728e-05 0.13414338 0.031533122 -0.14905225 -0.13933863 0.042973407 -0.033572562 -0.012491707 -0.106952906 0.13680209 -0.101114824 0.1317592 0.11205928 -0.0514747 0.11046517
these 0.026418626 -0.10812802 -0.05492899 -0.081454635 -0.02959929 0.1089928 -0.031350233 -0.046006307 0.064599946 0.037944485 -0.05590472 0.017435165 -0.11700131 -0.005607316 0.041850217 -0.0930661
say 0.0097939875 -0.08591838 0.06402651 0.00094929076 -0.1234427 0.009545097 0.024559336 -0.033175346 0.0904879 -0.023765793 0.037314054 -0.027073195 -0.106497295 0.15848647 0.022460835 0.065430485
scene 0.053992625 -0.030209072 0.0026446953 0.01887931 -0.08906824 -0.045325167 0.077891976 -0.025304047 -0.02610343 -0.045799673 0.071818985 -0.03109272 0.04520354 0.01677413 -0.044950914 0.060144953
while 0.055518318 -0.020139255 0.0772758 -0.037799194 0.008647635 0.028116476 -0.0045661815 -0.04632847 -0.05337955 0.013815173 -0.019712644 -0.044952348 0.026627121 -0.0062781363 0.025314799 -0.053177793
why -0.09438332 0.11217541 -0.2303605 -0.01889626 0.021754738 -0.028434154 -0.016806902 0.061583918 -0.020736858 -0.02211077 0.073730096 0.06882979 0.061645284 -0.09845256 -0.07869798 0.077125676
scenes 0.04019111 0.011634547 0.053344563 -0.034553282 -0.06457306 0.009263019 0.039591808 0.0066627716 0.060552925 0.011073605 -0.031516656 0.026044285 -0.004207006 -0.008281262 -0.018627023 0.0014238409
go 0.010299083 -0.02101208 0.09128134 0.085055746 -0.14544867 -0.02180227 0.046356346 -0.07440957 0.087375574 -0.10333801 -0.0027340923 -0.06914985 0.010705678 0.027954489 -0.04837928 0.030860571
such 0.0029182087 -0.028338877 0.00021160848 -0.02377583 0.062063966 0.025203107 -0.011059952 0.027800718 0.043220848 0.04961639 -0.052775133 0.005005594 -0.079635665 -0.0541326 0.016548518 -0.055622127
something 0.11576144 -0.10644114 0.15122914 0.05478071 -0.1745586 -0.10903613 0.056933347 -0.10641791 0.06073806 -0.09526953 0.01969932 -0.08663216 -0.053651236 0.08828962 -0.09753541 0.054585654
through -0.06957928 -0.01575874 -0.025835816 -0.0053265397 0.037501283 -0.026330678 0.02705939 0.09020892 -0.041354932 0.036048464 0.024418356 -0.019197995 0.0115936445 -0.082674526 -0.013074505 -0.046758886
should -0.008222433 0.0177511 0.001684939 0.044148713 -0.06369021 -0.11129182 0.08220091 0.113066696 -0.022526065 -0.033997364 0.092450574 -0.020421362 -0.033066656 0.11951708 -0.118503034 0.07280621
back -0.0083102975 -0.07279994 0.04062557 0.013980202 -0.0747953 0.014309118 0.0082844095 -0.1015041 0.03965495 0.03526536 -0.043688353 0.028466964 -0.045421276 -0.010869484 0.035169665 0.015872436
i'm 0.03571586 0.035633814 0.007285014 0.055207983 -0.10065301 -0.023557298 0.043664873 0.01173993 -0.040025033 -0.086409934 0.027696619 -0.08373237 0.06074971 0.025057014 -0.048461862 0.083238184
real -0.10111197 0.118220136 -0.02528474 -0.06144065 0.021759111 0.028079603 -0.024646837 -0.0059744613 -0.03923293 0.025448142 -0.07416994 0.096293055 -0.006684754 -0.06581993 0.09010802 -0.027568866
those -0.016756989 0.029911399 0.07296367 -0.016203323 -0.055881824 0.058452602 -0.040237483 -0.08792856 0.032587975 -0.0007494585 -0.048752 0.038136397 -0.05120633 -0.03297881 0.057967234 -0.05416939
watching 0.01917425 -0.04951928 0.12853628 0.0124523165 -0.16936052 0.042250913 0.029348036 -0.16683266 0.18291453 0.02379183 0.0025952666 -0.022825694 -0.02498229 0.1001314 0.002442034 -0.0067043738
now 0.018991018 0.06871738 -0.010443954 -0.0681121 -0.012636339 0.103247486 -0.06163771 0.019144643 -0.002277715 0.0356356 -0.08496037 -0.0133649865 -0.0616325 -0.053260032 0.07506318 -0.012104654
though -0.06261217 0.0006295191 0.020567503 -0.07715 -0.024891105 0.090129256 -0.06867178 -0.08657755 0.15816903 0.08571927 -0.09327549 0.06336414 -0.105264015 0.038827922 0.13092422 -0.114883214
doesn't 0.023739668 -0.050938208 0.029333118 -0.0785787 -0.06015389 0.014359513 0.029497411 -0.07534652 0.08451362 -9.909001e-05 -0.017788973 0.0337348 -0.033622574 0.020182906 0.03397603 -0.033872463
years -0.062349554 0.11472773 -0.028618721 -0.12079053 0.035489548 0.10860782 -0.13823964 -0.0051066377 -0.012726625 0.082606584 -0.11322286 0.11453935 -0.08610142 -0.12293698 0.077676214 -0.15095085
old -0.03860468 0.0071521583 0.034450445 0.027770203 -0.025826836 0.01928441 0.024875877 -0.03017658 -0.065077715 -0.0077441735 0.0482858 0.017676003 0.015547832 0.03415184 0.0143059585 0.03477514
thing 0.07567204 0.044280834 0.011329013 0.1113241 -0.03412096 -0.12140937 0.13945653 0.02508794 -0.029552937 -0.09242068 0.14052333 -0.09980985 0.14238289 -0.00016261033 -0.076006725 0.07909097
actors -0.03170152 0.01570508 -0.051274177 0.02947756 0.06324647 0.09886058 -0.032859642 -0.019715572 0.034661394 -0.0028961904 -0.0064389394 0.018675016 -0.04966867 0.034943063 0.030908914 0.009196661
work 0.035662763 0.03843601 0.12518518 -0.092709534 -0.049339384 0.011580643 -0.0010187713 -0.041241936 0.053676993 -0.01896685 -0.023613634 -0.016040273 -0.063938476 0.030101975 0.041950967 0.021794377
10 -0.07587968 0.1431737 -0.058256365 -0.20234613 0.058929242 0.03662316 -0.19959892 -0.09116641 -0.009719839 0.15009317 -0.031976376 0.06946625 0.11458664 -0.08094411 0.18199526 -0.14348891
before -0.12494839 0.09192857 -0.12486567 -0.047672678 0.06756133 0.07722261 -0.05081186 -0.017010137 -0.07553966 0.024907822 -0.064201936 0.07698909 -0.015169598 -0.11094516 0.085042216 -0.037472833
another -0.038352508 0.04527917 -0.18188116 0.07056661 0.01827418 -0.013258743 -0.028641593 0.059535902 -0.11504956 -0.059376862 0.09756354 0.047864635 -0.008138064 -0.040373176 -0.073713705 0.023971519
didn't -0.0070828185 0.07048278 -0.044947933 0.005458485 0.01964824 -0.05222824 0.013345424 0.06264026 0.026799127 -0.07146343 0.068194695 -0.041458324 0.07789229 -0.058762874 -0.078845754 0.09735106
new 0.019819621 0.024597004 0.026283862 0.047370076 -0.110144466 -0.024320839 -0.07831133 -0.16972162 0.07505265 0.03884653 -0.055284165 0.006206532 -0.03401117 0.026579442 -0.0019719163 -0.089784876
funny -0.011077264 0.0149826715 -0.015428197 0.033808984 -0.005280695 0.0014999579 0.01209384 0.024307754 0.04205307 -0.010735874 0.059487075 -0.023314245 0.026596013 0.072473295 -0.058485873 0.004206312
nothing -0.046657324 0.048896555 0.0033118818 -0.006958565 0.013565828 -0.056945976 -0.08363553 -0.06351386 0.09155168 0.06639241 0.0035412249 -0.018756533 0.0058824862 -0.07307748 0.0022372345 0.0002630961
actually -0.00048384976 0.06080966 0.050273303 -0.00066482497 0.075779796 -0.089886636 0.09740804 -0.04856192 -0.09334318 -0.062157378 0.011879241 0.0027532622 0.12571004 -0.021220429 -0.021525603 0.005080673
makes -0.0100243185 0.03551974 -0.089340195 -0.0736054 0.021198964 0.040258415 -0.0036901564 0.0112526715 0.03681727 0.0074958205 -0.00032552902 0.09894511 -0.058113035 -0.022160845 0.05699441 -0.05407266
director -0.037525035 0.08662399 -0.10986734 -0.04972224 0.05649128 0.05371555 -0.08160088 -0.07445592 0.059808835 0.060988043 -0.030564375 0.054172058 0.01871236 -0.109614074 0.08246337 0.0030581942
look -0.010232394 -0.027800482 0.0441757 -0.07746961 -0.07377 -0.013606043 -0.05243921 -0.1281333 0.04829855 -0.023081278 0.019664917 -0.005233526 -0.07746178 0.117878385 0.028708931 0.0029126767
find 0.051057756 -0.05039977 0.0063135885 -0.064448595 -0.03654638 -0.033216637 0.024307678 -0.009362649 0.02840059 -0.014541762 -0.00801701 0.0007024672 0.031032052 0.051459525 -0.030142652 0.056900054
going -0.0615695 0.11862115 -0.14726675 0.046249133 0.083646946 0.002761188 0.008858187 0.0006793439 -0.09998822 0.051488683 0.011101399 0.1119362 0.0271411 -0.104055285 0.011098558 0.01134012
few 0.023789873 0.06792407 -0.024136217 0.074394666 0.004858724 -0.11158144 0.08944197 0.066297054 -0.06637785 -0.0458886 0.09571265 -0.031373024 0.07168043 -0.02496008 -0.095986895 0.025475895
same -0.0052232924 -0.0423066 0.03839138 0.051030263 -0.042344373 -0.016488448 0.017865252 0.045698542 -0.057109248 -0.051460795 0.072881885 -0.065450884 0.071729906 0.056614198 -0.06646976 0.093741916
part 0.08538166 -0.023960682 0.014753103 0.048092652 -0.022943104 -0.03796384 0.11883035 0.10486726 -0.019953214 -0.11581301 0.110695295 -0.13248181 0.012822744 0.11091222 -0.09760618 0.09301752
again 0.007629128 0.019877922 -0.028394515 -0.05322248 0.004926468 0.0819618 -0.036893193 -0.028544927 -0.025599562 -0.005563528 -0.026727483 0.046379454 -0.04291026 -0.010669399 0.037465353 -0.020892482
every -0.049168013 0.117225625 -0.12258443 -0.0011586769 0.11408362 0.11284888 -0.047630295 0.041245185 0.0040505207 0.12106095 -0.08082346 0.08746264 -0.037517402 -0.07662942 0.07650354 -0.0802783
lot 0.10957504 -0.087525286 0.02510956 0.026628856 -0.028807566 -0.039536953 0.052225515 -0.026419746 0.057619657 -0.024774184 0.0016390232 -0.102442 -0.03636557 0.060701188 -0.052243136 0.008664278
cast -0.019610865 0.035860647 -0.01990274 0.007307328 0.03729853 -0.04704583 0.05375591 0.063089184 0.0007017892 -0.037111495 0.056702055 0.01634363 0.059047684 0.068294585 -0.060981102 0.008859895
us 0.052333042 -0.008591005 0.14408681 -0.029922485 -0.141528 0.01350898 -0.07002942 -0.1619465 0.16741991 0.036247756 -0.103644066 -0.049171325 -0.05701339 0.02550145 0.055931374 -0.015394791
quite -0.011139676 -0.023594243 0.029572738 -0.005853022 -0.06819554 -0.009758723 0.040905554 -0.08592691 0.049724746 -0.031079013 0.0030813483 -0.0820885 -0.034537174 0.092871815 -0.057747245 0.023368672
down 0.036735438 0.020179875 0.017707016 -0.013338649 0.0067220833 -0.037608974 -0.049432106 0.044654932 -0.08540603 0.03820355 0.048131764 0.020241791 0.020734696 0.006020293 -0.021366313 -0.02282443
want -0.05944952 0.06289821 -0.12988919 -0.03210693 0.047072627 0.0476353 -0.046099357 0.09597341 -0.032850888 0.02974771 0.00645625 0.03485238 0.03852725 -0.118691586 0.02145125 0.0083592795
world 0.014696729 0.07318166 0.06770229 0.093254216 -0.08652301 -0.11084168 -0.00044728903 -0.0787448 -0.042965252 -0.0723118 0.032140438 -0.02589036 0.12047104 -0.0025940554 -0.051901862 0.07190408
things -0.010812172 0.055488568 0.042373378 0.114630714 -0.020037444 -0.10339951 0.11554054 0.024189124 -0.008615202 -0.09206147 0.1393262 -0.098529816 0.034679737 0.06632067 -0.108728655 0.04335277
pretty -0.07522632 0.030227214 -0.021543574 -0.029509667 0.042374656 0.084371455 -0.100940704 0.04371064 -0.07060664 0.11573142 -0.062487226 0.035984613 -0.033935845 -0.12524755 0.07911267 -0.06466912
young -0.021539507 -0.012719284 -0.05270677 -0.021009164 -0.032255214 0.04576727 -0.088515475 -0.063507274 0.035130773 0.044878587 -0.040430248 1.2432356e-06 -0.04176897 -0.06199811 0.0067804987 -0.030166192
seems 0.030353226 -0.044945523 0.035708424 -0.07112247 -0.12252075 -0.011561038 -0.0050237486 -0.021234019 0.016072143 -0.01647382 0.06385424 -0.059868336 -0.08984112 0.08136339 0.02825328 0.037537023
around -0.050129827 0.07318426 -0.10833237 -0.032115873 0.041117065 0.06561954 -0.059252717 0.011688659 -0.06065942 0.08804707 -0.11484243 0.10125491 0.02161353 -0.13312256 0.07890957 -0.06892385
got 0.010717425 0.017403543 -0.07630489 -0.06109114 0.042388733 -0.029211044 -0.026907735 -0.026232447 0.053487606 -0.014381205 -0.05319025 -0.012141812 0.00452771 0.016421834 0.044331755 -0.019684324
horror -0.070798054 0.0414791 0.05929023 0.0045523653 -0.10731399 -0.054651324 0.017196035 -0.09892837 0.044285193 0.029531276 0.0032926162 0.007676687 0.07313075 0.050654113 -0.0586411 0.028698165
however 0.07311027 -0.056345027 0.014823909 -0.026305042 -0.096463144 -0.035148818 -0.024383627 -0.092705846 0.052654944 -0.0023384115 0.0025359232 -0.009160549 -0.073269464 0.11267462 0.0009701218 0.0462447
can't 0.01346193 -0.0070183747 0.0416477 0.012545879 -0.027714653 -0.0080255 -0.057626612 -0.13609897 0.07585278 0.031889822 -0.12598646 0.005045005 -0.052638575 0.03487642 0.0454263 -0.091449514
fact 0.0811971 -0.078876995 0.06256676 -0.016785858 -0.09023692 0.062165383 -0.07721556 -0.14317371 0.15562117 0.015689578 -0.042205445 0.0012640324 -0.10709852 0.06425307 0.06967797 -0.013923216
take -0.056524962 0.11958573 -0.10519362 0.008337031 0.00084543886 0.045137085 0.0054843593 0.044890687 0.0017997982 0.035560455 0.00906893 0.08451692 -0.0049528615 -0.11338322 0.065933704 -0.04669427
big 0.0385026 -0.00849203 -0.03006215 0.0019400197 -0.077148095 -0.017496103 -0.029878233 0.0060177594 0.035318963 0.021407373 -0.03648193 0.003755807 0.015182469 0.022303829 0.0054646567 0.0021552744
enough -0.09875791 0.06852987 -0.09078151 -0.017471734 0.011870121 -0.018609457 -0.019428503 0.057113077 0.04023594 -0.06695052 0.06691768 -0.046051793 0.025796995 -0.008101005 0.011545724 0.014762864
long 0.0062772683 -0.10633656 0.036285475 -0.06714621 0.012179896 0.06109599 0.02465389 -0.021448359 0.08069376 -0.056731652 -0.028191116 -0.04161202 -0.10738182 0.04351801 0.06669629 -0.054952435
thought 0.06335884 -0.07116422 0.067482546 -0.007633153 -0.087043464 0.038905233 -0.043850202 0.024296947 0.10523696 -0.05287963 0.030071292 -0.013009797 -0.052548405 0.09565901 -0.014208361 -0.005583766
that's 0.0046866518 0.059523493 0.019612823 -0.0019720788 0.011033304 0.041367725 -0.057097536 0.0021191791 0.009643101 0.06146543 -0.025094083 -0.013095853 -0.0012975655 0.029999096 0.09204859 -0.0064606788
both -0.069120444 -0.0011440887 -0.06842086 0.014566629 -0.050370097 -0.0056458204 -0.12186938 -0.13499635 0.10938458 0.041234307 -0.1086848 0.009675183 -0.061616953 -0.011034378 -0.022777064 -0.111037344
between 0.052340113 -0.099100985 0.036996856 0.021389691 0.024153462 0.07566784 -0.051542416 0.04625721 0.033263296 0.030441364 -0.04044002 -0.04412955 -0.07990181 -0.00032818853 0.020876111 -0.01919126
series -0.019508967 -0.04394585 -0.010433033 -0.11895072 -0.10634083 0.051423647 0.0044862465 -0.06773542 0.11204405 0.042089865 -0.055289112 0.009245135 -0.062040515 0.063992895 0.07395348 -0.06751074
give -0.049605276 0.023012932 -0.06610547 0.0045587006 -0.004681077 -0.045298245 -0.10330867 -0.0026881567 -0.020180747 0.10106759 -0.045342617 0.022348937 0.09680409 0.0033232588 -0.010468665 -0.07144426
may -0.022594413 0.04774741 -0.07416539 -0.038226392 0.11894963 -0.019767204 -0.023323117 -0.042063948 -0.046402756 0.051624805 -0.04496141 0.022374336 -0.04928503 -0.037066434 -0.004882354 -0.018159058
original -0.07010572 0.0099892365 -0.0906949 0.0045688655 0.06054197 0.062374134 -0.043239944 -0.057686687 0.06568648 0.034487206 -0.03780418 -0.01675566 -0.020969642 -0.016600525 0.030005934 -0.049828265
own -0.0793494 0.070183 -0.053798202 0.030215537 -0.00369816 0.0058611482 -0.018112617 -0.010718346 -0.048480224 0.03296867 -0.05207213 0.059947107 -0.025267523 0.0076035894 0.0022698636 -0.05622242
action -0.024585444 0.05326496 -0.12294808 -0.046617094 0.056458537 0.046034425 -0.06058978 0.030045405 -0.06619821 0.057808753 0.028333688 0.0070505226 0.005917153 -0.02647766 -0.00021419411 0.010000825
i've -0.08361666 0.1135644 -0.06979796 -0.006336865 -0.08149018 0.012328756 -0.014748697 0.10526294 -0.060062625 0.039284736 0.059541907 -0.03347992 0.031537406 0.013952252 -0.030020196 0.06431948
right -0.00797767 -0.0053835115 -0.015375876 0.0020072423 -0.04419652 0.009685045 0.014953477 -0.05940064 -0.009976573 0.04699976 -0.040470727 0.045628734 0.011277459 -0.035563808 0.027782083 -0.05314255
without 0.015850604 -0.08230763 0.12935726 0.02946463 -0.10461083 0.06343419 -0.0039921575 -0.07781652 0.09460759 0.03440125 -0.037367854 0.010072532 -0.09694833 0.11303608 0.019212909 0.022384584
always -0.045936234 0.049505733 -0.10051285 -0.02448784 0.017625509 0.049440514 -0.1141941 -0.08998613 0.016168997 0.12052424 -0.13487843 0.116547264 -0.10069132 -0.02464301 0.10466861 -0.04477126
times 0.0301974 -0.0413108 0.003869126 -0.047648016 -0.07535964 0.02851705 -0.008209071 -0.16520207 0.094801985 -0.037660215 -0.06962685 0.0033493 -0.08499826 0.016213689 0.05587507 -0.0075123976
comedy 0.04212705 -0.058893926 0.09463163 0.055522878 -0.12782025 -0.051237565 0.04542751 -0.12804957 0.06290537 -0.070759006 0.044362042 -0.1009645 -0.0072606415 0.1099834 -0.06137086 0.01474341
point 0.06635875 -0.01972172 -0.052415166 0.0879027 0.036307618 -0.116151065 0.09582315 0.10385743 -0.15159124 -0.03764803 0.12504758 -0.036910307 0.08048767 0.024375245 -0.044237673 0.060375042
gets -0.05602629 0.072115 -0.096274875 0.060897823 0.02936688 -0.051059905 -0.052112482 0.042219583 -0.043186035 0.030658033 0.014191626 0.08379644 0.08163383 -0.07977101 -0.022691946 0.01231761
must -0.062329687 0.09405339 -0.05268377 -0.06084667 0.05396982 0.12614682 -0.13860348 -0.036713358 0.028689155 0.08962384 -0.102513716 0.057147287 0.010149218 -0.07723843 0.0667393 -0.12054419
come -0.018350625 -0.04079387 0.07386872 0.00072544516 -0.1260692 0.03317877 0.014707831 -0.114676535 0.0693067 0.0194832 -0.005387438 -0.028941093 -0.028435217 0.07087992 -0.028479576 -0.0572456
role 0.05306283 -0.03112491 0.018598018 -0.017334653 0.0068435357 -3.4689656e-05 0.04347375 0.034875866 -0.10067313 -0.08593937 0.02753412 -0.01820178 0.046479683 0.06803314 -0.046943087 0.04596079
isn't -0.034992643 -0.050765377 0.07429887 -0.07599634 -0.11163527 0.08416007 -0.05627463 -0.11808809 0.19849989 0.010638482 -0.061948955 -0.008442703 -0.13154761 0.06328633 0.038952693 -0.0923255
saw -0.09180794 0.1656082 -0.13336095 -0.082379706 0.13759315 0.109195754 -0.16093646 -0.081625365 0.03847215 0.11515919 -0.15808308 0.09508327 -0.027616434 -0.13450886 0.08000324 -0.09495648
almost -0.013641217 0.019847156 0.08580486 0.047952943 -0.02197322 0.009271246 0.076740794 -0.041545857 -0.026913667 0.011787685 -0.047476295 -0.041589335 0.040031463 0.04316536 0.005043029 0.019846313
interesting 0.00862046 -0.10692547 0.021612512 0.01981635 -0.036563024 0.03786678 -0.009762138 -0.029036855 0.003226524 -0.021832645 0.05432213 -0.12505442 0.00046911184 0.04682996 -0.07937308 0.013184942
least -0.016855283 -0.03189435 0.014369267 -0.04386318 -0.058204416 0.013747911 0.02920756 -0.014414671 0.043394968 0.014741275 -0.00068646786 -0.018530037 -0.00706166 0.03971736 -0.013423771 0.019042855
family 0.024883727 -0.010455686 0.068525046 -0.08719551 -0.040281847 0.050498627 -0.010238918 -0.029532842 0.05486468 0.09537975 -0.06498287 0.021214778 -0.11063297 0.008336237 0.03218458 -0.023347514
done 0.09746458 -0.09329265 0.023759607 -0.011380238 -0.13069509 0.015429243 0.030931579 -0.020181622 0.051274654 -0.08581071 0.108550414 -0.096153945 -0.057173323 0.047993734 -0.03757908 0.057132106
there's -0.075115845 0.066439584 -0.09427758 -0.07741349 0.0074155983 0.04236659 0.033239033 0.029540446 -0.014786313 -0.036714654 0.045508705 -0.025450751 -0.069319904 -0.020788465 0.03270066 -0.025003854
whole -0.09423875 0.1522613 -0.110313326 -0.08566388 0.07062283 0.12738189 -0.12694559 -0.14277862 0.12699771 0.121786736 -0.08433646 0.11877771 -0.093597725 -0.11816646 0.11005874 -0.12892504
bit -0.015874611 -0.0025989776 0.09441496 -0.0111008035 -0.0978593 0.0030870768 0.04728581 -0.079351954 0.04548127 -0.042041454 0.06833411 -0.008607808 -0.061618265 0.07495714 -0.035008237 0.0044149496
music -0.14821337 0.13741635 -0.04001769 -0.08301679 0.09633598 0.09037849 -0.1523296 -0.028748125 0.019815644 0.097884044 -0.07585483 0.093515135 -0.08954493 -0.10058054 0.056112636 -0.1368684
script -0.1059787 0.111982614 -0.15758409 -0.07372552 0.17282207 0.101375915 -0.03518045 0.03894663 0.01191766 0.0664932 -0.05363044 0.053376053 -0.06239578 -0.045811247 0.055326648 -0.0033186148
far -0.028137142 0.017446304 0.02166648 0.03664472 -0.013705706 -0.045927156 0.05643191 0.008619597 0.021091856 -0.026417559 0.03773795 -0.026874399 -0.015051375 0.072937414 -0.023384906 -0.0071946825
making -0.07981215 0.052668978 -0.08802902 -0.00050737965 0.067691706 0.0032027047 -0.03675364 0.0052089435 -0.028484836 0.0656202 0.02979645 0.09811187 0.001872694 -0.055459574 0.071791 -0.017418677
guy -0.061754473 0.081507415 -0.11201638 -0.06330478 0.08556678 0.08567336 -0.08111649 0.092628114 0.0045903297 0.011116511 -0.03217501 0.07706598 0.003071201 -0.054558896 0.050516292 -0.09453602
anything -0.0041896845 -0.048316475 -0.015045994 0.04323926 -0.08821666 -0.09392633 0.008482448 0.00085684884 0.0121177 -0.052965447 0.05955839 -0.08988282 0.027025077 0.037795395 -0.100265235 0.049148634
minutes 0.045751255 -0.0047998806 0.061146576 0.10655121 -0.11170866 -0.18047148 0.07427807 0.052061763 -0.013718561 -0.103522636 0.15479852 -0.12133971 0.15733169 0.08741779 -0.11706342 0.21316679
feel -0.01389694 -0.029372845 0.09063763 -0.023878338 -0.07404944 0.0069232625 0.039730124 -0.08945945 0.056808706 -0.02856003 0.00037119183 -0.045160014 0.0015002491 0.07146274 -0.010719571 -0.0019096723
last 0.015331551 0.021015463 0.0106831165 0.01480637 -0.046561733 -0.11869908 0.11292849 0.098044634 -0.0740763 -0.06829593 0.11768998 -0.05765392 0.11762563 0.058316022 -0.060430653 0.079169534
since -0.08357636 0.16818845 -0.18303324 -0.11191446 0.18087989 0.04151877 -0.061866626 0.032888733 -0.031102518 0.057070345 -0.0063770176 0.07014082 -0.005690774 -0.09311095 0.06704139 -0.11555759
might 0.0146553 -0.05551985 0.08508422 -0.04787883 -0.10547097 0.020014647 -0.047512174 -0.09015045 0.15041392 0.020502716 -0.064861625 0.01921073 -0.11987868 0.061827883 0.07523597 -0.051340077
performance 0.0014363262 0.048504166 -0.084504545 0.008846702 0.03794987 0.011518792 0.013389648 -0.018473953 0.0151822325 0.041746564 0.051965658 0.0047674957 0.007462061 0.0013833715 -0.017785687 -0.0013759332
he's 0.010588962 -0.034661077 -0.020405876 0.024832249 -0.032124534 -0.0341468 0.022898735 -0.00022088719 0.013533506 0.037611738 -0.03223497 -0.007157917 -0.051694866 -0.040860724 -0.02289895 0.008877203
2 0.011320186 -0.03702349 -0.013802941 0.095545895 -0.11186836 -0.072105825 0.032342557 -0.027295155 0.031375926 -0.050165545 0.13401808 -0.015702298 0.10929283 0.069867015 -0.10317279 0.078646444
probably -0.025036836 0.0054850243 0.10143045 0.03148694 -0.1023941 -0.027212495 0.04901534 -0.010357399 -0.0058309413 -0.06330464 0.08655906 -0.07767252 0.012381222 0.12702316 -0.03462243 0.12852529
kind -0.06605387 0.0081463745 -0.10096504 0.09019829 -0.033057164 -0.09791634 0.0710452 0.09971236 -0.07942858 0.008496338 0.030767303 0.039912798 0.081334405 -0.03653088 -0.035579223 0.09714089
am -0.10079285 0.09961721 -0.08382182 -0.017417544 0.09154891 0.09605796 -0.12935673 0.014680881 0.033163037 0.04876801 -0.128527 0.094211385 -0.015875343 -0.16610132 0.06425672 -0.12885831
away 0.023494553 0.09845778 -0.052998442 0.07647646 0.008088956 -0.042491846 0.024523621 -0.08818276 0.009515691 -0.04994942 0.02281879 0.027407933 0.04026915 -0.015812896 0.00539168 0.01996994
yet -0.034837462 0.0013740122 0.09875302 -0.04837271 -0.099036604 0.056295853 -0.0789346 -0.17155717 0.16047847 0.08398193 -0.16311875 0.028021963 -0.09954264 0.055169374 0.107294336 -0.053889293
rather -0.073483154 0.104337715 -0.12599549 -0.01612319 0.08674257 0.12290993 -0.14864643 -0.03678583 0.016743004 0.08194757 -0.14002469 0.16578606 -0.005115117 -0.16146223 0.029379567 -0.068117216
tv -0.070722796 0.025506346 -0.034639154 -0.05282946 0.003429928 0.002618679 -0.060170516 0.01599127 -0.039624605 -0.019806303 0.042520795 -0.021108601 0.06557711 0.02007659 -0.014572084 0.06831869
worst 0.016372776 0.03767618 -0.018825747 0.104187615 -0.10240681 -0.10096858 0.122151285 0.16031593 -0.08581454 -0.08162534 0.18325147 -0.08639273 0.09620827 0.047842152 -0.090979725 0.17250417
girl -0.069104426 0.095453136 -0.12280062 0.011522991 0.026744733 -0.016332356 -0.017729666 -0.0025548507 0.03574668 -0.01568 0.010559609 0.0046122596 0.048619557 -0.039398197 -0.030365027 -0.053015254
day -0.04285188 0.101442456 -0.020172192 -0.059188712 0.07509291 0.025438748 -0.054067984 0.02867464 -0.0665918 0.023998208 -0.047347326 0.10115216 0.00546178 0.0019391275 0.06671165 -0.072701566
sure -0.12574667 0.11705128 -0.12829408 -0.091576695 0.107495576 0.10636566 -0.12463737 -0.06142121 0.0750825 0.10296503 -0.088723354 0.13867007 -0.13391063 -0.09979037 0.11754167 -0.16041964
fun 0.055687454 -0.073446214 0.029882926 -0.07548782 -0.12382935 -0.028052116 0.047179826 -0.044188734 0.066193044 -0.029870896 0.10113505 -0.03361099 -0.00797457 0.08243624 0.013867722 0.058929272
hard 0.061653756 -0.040822882 0.057064276 0.019051537 -0.056879297 -0.058290903 0.07827269 0.041237183 -0.0046554995 -0.09645052 0.0787123 -0.124827184 -0.052023347 0.032477703 -0.022156166 0.06696311
woman -0.038107436 -0.04484049 -0.02796854 -0.06742196 0.015939517 0.06715427 -0.08777748 -0.037743423 0.009037939 0.04774226 -0.07925845 0.024687761 -0.044855744 0.036162388 0.055315305 -0.051673505
played -0.04172622 -0.023977641 -0.005582501 -0.042158477 -0.038749266 -0.022264438 -0.05286076 -0.10492358 0.06029985 0.037587862 -0.006242636 0.019749999 -0.047980096 0.078112945 0.0378794 -0.03989621
each -0.12231712 0.07664646 -0.07745732 -0.049491096 0.08314882 0.10310942 -0.11607946 -0.026278313 -0.019630501 0.09880813 -0.05176517 0.039468035 -0.049263023 -0.072621934 0.11975589 -0.036380287
found 0.049491607 -0.099926285 0.041956317 -0.033187617 -0.034673862 0.042170577 0.026989508 -0.020688491 0.049827017 -0.072158836 0.01927986 -0.069242366 -0.016344775 0.11264581 -0.038880784 -0.005331213
anyone -0.06733895 0.065216884 -0.07623185 -0.115414225 -0.03796804 0.1065421 -0.08627382 -0.029841846 0.006948183 0.05767982 -0.029063024 0.03742055 -0.10086798 -0.042045098 0.13224027 0.001298521
having -0.065181546 0.053396422 0.0040378952 -0.11975391 0.037822343 0.13612042 -0.10802754 -0.11532359 0.1843386 0.15191418 -0.09872675 0.11104848 -0.16291173 -0.14012057 0.12273737 -0.11557076
although -0.05805513 0.05534482 -0.12245179 0.052527376 -0.008323975 0.0055862577 -0.0036569047 0.05576504 -0.04829012 0.01341764 0.05036866 -0.013853995 0.024202831 -0.088479444 -0.054727662 -0.008074894
especially 0.02905279 -0.11589906 0.004315668 -0.009876628 -0.055247758 -0.019149177 0.0650578 0.0317807 0.015783748 -0.054886814 0.03704752 -0.022057733 -0.093815245 0.09420335 -0.026331376 -1.0200587e-05
our -0.10088246 0.12773018 -0.105679795 -0.09207206 0.08590356 0.06736759 -0.14565827 -0.025478562 0.05363405 0.10179531 -0.13140973 0.15603714 -0.110399865 -0.11470669 0.1274831 -0.17591289
believe -0.05884392 0.022254016 -0.040256627 -0.04198368 0.0139380535 0.010972211 0.011556966 -0.039635375 0.025142394 -0.048442993 0.061938945 0.03316424 0.02583914 -0.0049131424 -0.02427039 0.060317304
course 0.045314837 0.014597659 -0.004199701 0.011310235 -0.032439798 0.0072610453 0.009454408 0.03373542 0.05709303 -0.009423102 0.025347833 -0.012830935 -0.042362653 -0.028076382 -0.0063837287 -0.04204856
comes -0.030663136 -0.0076343133 -0.023858808 0.013969535 0.029585948 0.046851736 -0.041221716 -0.03628621 0.010185524 0.028045828 -0.049368706 0.0586996 -0.029734198 0.011987095 0.028121162 -0.071019955
looking -0.011643101 -0.015307877 0.004246275 0.0063535743 0.0057684816 -0.039529752 -0.041231718 -0.042046882 0.018809462 0.01389868 -0.03437866 -0.002114213 -0.07961565 -0.02159426 0.027249847 0.01235697
screen -0.055474717 0.01927351 -0.061620135 -0.04862785 -0.0015050381 -0.0102476375 -0.012358213 0.023412453 0.0038959812 0.026387054 -0.050628804 0.045564562 -0.028884625 -0.02785432 0.046422273 0.014077391
trying 0.008564292 -0.0043622046 -0.01938497 -0.0753173 -0.0035627277 0.09158267 -0.061523736 -0.14765957 0.13766558 0.059686538 -0.07881068 0.06936379 -0.17865981 -0.015197795 0.082885064 -0.103860535
set -0.10708345 0.07479408 -0.038771663 0.0069526155 0.083461694 0.040774826 -0.005661668 0.029675124 -0.012796082 0.12297534 -0.06890016 0.044309296 -0.049128093 -0.118353754 0.124638036 -0.07920556
goes -0.029334707 0.024094699 -0.062433716 -0.112006746 -0.0024774778 0.15116382 -0.114627235 -0.01080211 0.14587131 0.11058418 -0.06987612 0.05214589 -0.12408947 -0.09193039 0.1238795 -0.12463057
looks -0.124855265 0.081157945 -0.105448626 -0.09317889 0.020934155 0.055858977 -0.06509357 -0.03927463 0.04480239 0.115138434 -0.09478634 0.06043047 -0.06309643 -0.07414873 0.0860833 -0.08151681
place -0.11440977 0.13877414 -0.178971 -0.08064058 0.07000635 0.12654407 -0.1772963 0.0017659354 0.045019682 0.19010168 -0.19266595 0.16793773 -0.0884104 -0.15677823 0.19163564 -0.15820652
book 0.023966331 -0.010318735 0.018569447 -0.023463981 -0.07371514 -0.0025041108 -0.021300556 0.021338739 0.073419936 -0.05729509 -0.007065092 -0.03719439 -0.055081878 0.0075508547 0.036764756 -0.020596027
different -0.029495796 -0.041691277 0.03481304 0.027783137 -0.088437006 0.015105279 0.005790987 -0.05234874 0.060283538 0.011226406 -0.067635916 0.00083613966 0.029301984 0.06806285 0.021114055 -0.047886815
put -0.006135467 -0.0028861128 -0.001807558 -0.10097516 -0.003779674 0.13199526 -0.16417633 -0.10621098 0.07584614 0.07803899 -0.11648318 0.07940753 -0.09525674 -0.07997452 0.13416582 -0.08855527
ending -0.06322902 0.0038416772 0.0054270127 -0.013126867 -0.042440668 0.0142370025 0.024086379 0.017175892 0.036511622 0.05913191 -0.0006399008 -0.020359838 -0.085850134 -0.00905487 0.00073283346 -0.0014748669
money 0.045009013 -0.05676466 0.14584823 -0.00044384337 -0.17943749 -0.090030484 0.07537113 -0.093447775 0.13042745 -0.08760914 0.08216506 -0.06495679 0.018281333 0.1207945 -0.050990902 0.095144466
maybe -0.056996904 0.10406106 -0.05587768 0.046998564 0.033596702 0.019091656 -0.024703884 -0.0032632647 -0.028828997 0.007451761 -0.047806546 0.08486861 0.030856464 -0.05527745 0.018098429 -0.0064884867
once -0.086391464 0.09928247 -0.12085165 -0.07256788 0.08902537 0.16477366 -0.18876715 -0.03849235 0.07458309 0.18233365 -0.19371933 0.17954162 -0.08702929 -0.084257886 0.15000941 -0.14468126
sense 0.033567637 -0.012139776 0.09024019 0.023435425 -0.08312229 -0.08047272 0.0002797553 -0.016183585 0.036596477 -0.10271322 0.09693432 -0.11379042 0.03420648 0.06074096 -0.03793609 0.104633935
reason 0.1334957 -0.094550185 0.110238396 0.14801352 -0.14026624 -0.10996968 0.07631283 0.023133194 0.029246984 -0.074465536 0.1543762 -0.15369195 0.13646947 0.09323212 -0.07896399 0.07927171
true -0.07205749 -0.012205945 -0.058794223 -0.046422202 -0.0065563284 0.009896169 -0.045229077 -0.06781567 0.03157288 -0.0077544074 -0.04373385 0.058960985 -0.052234065 0.037211176 0.021846889 -0.033337265
actor -0.08328068 0.021557264 0.026661908 -0.025495023 0.035912532 0.0940379 -0.13196611 -0.02313092 0.057851393 0.05045226 -0.10911157 0.06015311 -0.11255605 -0.032810077 0.12368253 -0.091959685
everything 0.0036767789 0.037282657 0.031323377 0.00058843294 0.026970841 0.0047751796 -0.046861585 -0.024025366 -0.056143135 -0.012154172 0.017226404 0.03508355 0.04085031 -0.006713163 -0.005721599 0.012537643
wasn't 0.022537138 0.053880494 0.025487091 0.102522254 -0.058573786 -0.12629014 0.07228806 0.07984449 -0.056218475 -0.104338154 0.13017295 -0.12473182 0.11211087 0.052029524 -0.098429024 0.16619113
shows -0.0037665954 3.658318e-05 0.057376448 0.02710155 -0.0076747336 0.013998548 0.037735336 0.033025693 -0.0053811213 -0.04563845 0.050306518 -0.078990415 0.06146815 0.054429553 -0.033448722 -0.032553036
dvd -0.047898877 0.0029230916 -0.050934378 0.0037891243 0.0062855515 0.018729514 -0.023956465 -0.08383528 0.12907818 0.08558704 -0.08825195 -0.011574941 -0.02019141 -0.08539137 0.0829238 -0.08092326
three -0.06522993 0.03476639 -0.14026935 -0.044321015 0.04733706 0.0013511069 -0.02361529 0.10872985 -0.063925974 -0.0015171361 -0.042293254 0.03583008 -0.0062982035 -0.033852667 -0.0020061934 0.017804908
worth -0.112975955 0.15162028 0.0057462826 -0.075260796 0.07255782 0.051034316 -0.1167385 -0.07612253 0.03358131 0.06973183 -0.11171748 0.12391032 0.015533641 -0.09718303 0.02756029 -0.097807415
year -0.12822379 0.08319376 -0.088791 -0.09128737 0.059960015 0.09203 -0.12174599 0.014138168 0.03618988 0.03038048 -0.08388405 0.026830988 -0.06726737 -0.05698382 0.14016056 -0.061023563
job 0.038399484 0.020705966 0.018449519 0.0011154606 -0.094509654 -0.02708943 0.01635535 -0.0359993 -0.017447876 -0.04057473 0.00469445 -0.02599328 0.062142447 0.05363386 -0.027297737 0.050703704
main 0.0045135696 -0.0042036697 -0.027546657 0.067963384 0.04234924 -0.04088018 0.017378718 0.034698278 -0.11466181 -0.05256502 0.042374022 -0.02741372 0.023933802 -0.0042936374 -0.019732976 0.0656404
someone -0.004339414 0.0036340924 0.03342724 0.09715242 -0.06574328 -0.11631834 0.0669292 0.08557163 -0.16265993 -0.123386554 0.1550486 -0.102105446 0.13637312 0.028899916 -0.06887978 0.13806719
together 0.05619443 -0.08650965 0.02059944 -0.01335116 -0.1204645 0.003397736 -0.0042814687 -0.06881654 0.09397996 -0.07505383 -0.008493407 -0.068328835 -0.0041376757 0.14136688 -0.05597758 0.038382016
watched -0.0011120953 -0.10243796 0.037986454 -0.064454146 -0.10256086 0.06435799 -0.0052389586 -0.14717792 0.087513424 -0.00028370842 -0.03483592 0.019631444 -0.08116112 0.112969436 0.022318298 -0.058598064
play -0.03843469 0.061804418 -0.036922287 -0.04157648 0.027951127 0.024778502 -0.058041703 -0.012984315 0.076592654 0.06237442 -0.10934425 0.1024397 -0.04298643 -0.03993508 0.06827135 -0.028493771
american -0.14237861 0.08788616 -0.035514776 -0.11478561 0.058936812 0.15595707 -0.15562853 -0.042633515 0.108725145 0.12528817 -0.20649545 0.11298143 -0.07367402 -0.0935058 0.18764222 -0.19312288
plays 0.039937984 -0.049673464 0.088809334 0.054763965 -0.101829804 -0.07736327 0.11909965 0.027024454 -0.08937514 -0.07155971 0.110113025 -0.11236465 0.05439968 0.03479992 -0.05529186 0.15816522
1 0.042678554 0.073559836 0.08320942 0.03985507 -0.09386923 -0.012023169 0.030633012 -0.04231844 0.04843737 -0.040871162 0.10331775 -0.09180672 0.06727388 0.060286928 -0.0738537 0.09630053
said 0.0117343115 0.038919184 -0.085420914 -0.064916484 0.035887953 0.05770249 0.017896643 0.0010389461 0.017953515 0.019296326 0.020423807 0.022152616 -0.047526944 0.0040358705 0.042903688 -0.066195615
effects -0.0053166486 0.015470373 -0.05658626 -0.056781616 0.011174674 0.081434555 -0.055875134 -0.07569544 0.031422354 -0.008198866 -0.03718057 -0.022999087 -0.0024216806 0.06183573 0.041774124 -0.035021577
later -0.022958132 0.03542405 0.07125968 -0.0711953 -0.09606828 0.004784508 -0.05591388 -0.14632337 0.15538865 0.047702838 -0.07184028 0.052879866 0.012311168 0.004365845 0.07091366 -0.076181956
takes -0.025189452 0.0139810415 -0.05536208 0.008065991 -0.07778849 0.03960491 -0.026775599 -0.019970458 0.0069522024 -0.018578172 0.013232114 -0.035314627 -0.0023251853 -0.021196682 -0.021588549 -0.015737304
instead 0.01705133 0.030455085 0.017450344 0.013463813 -0.04360049 -0.09142435 0.06886339 -0.042591956 0.046582807 -0.03236207 0.0523689 -0.079674296 0.049509626 0.06980931 -0.05926985 0.112191685
seem -0.040511638 -0.07883754 0.031624615 -0.032071486 -0.040033434 0.08613366 0.009556008 -0.103207275 0.09710374 -0.028321771 0.00049725064 0.027248869 -0.048049763 0.042075172 0.026412422 -0.07879384
beautiful -0.10733865 0.026188606 -0.0015597391 -0.14747877 0.058027804 0.18589927 -0.12710357 -0.10290343 0.09273527 0.10155869 -0.17459422 0.11603924 -0.17695624 -0.11558641 0.09048333 -0.10618243
john -0.060073663 -0.037221286 -0.006955736 -0.14625677 0.053607933 0.10693675 -0.10912916 -0.038158234 0.0891943 0.071633294 -0.016944343 0.024632838 -0.08895322 -0.017837254 0.02527951 -0.016264107
himself -0.021530688 0.035794873 0.04948344 0.0056728185 -0.03702457 0.032483988 -0.014053909 -0.009730605 -0.010407156 0.008604546 -0.027318707 -0.013293428 -0.011991213 -0.06592319 0.02874356 -0.014290693
version -0.011380097 -0.031591523 0.049851894 -0.04926238 -0.0014295739 0.1162478 -0.086910054 -0.017172342 0.0591857 0.07082986 -0.058535367 -0.029159814 -0.08929096 0.00075326214 0.056968577 -0.087623656
audience 0.009524341 -0.015637584 -0.08831826 -0.041383967 0.07468436 -0.035094466 -0.045327067 0.014080256 -0.07068478 0.058536816 0.007620663 0.017576596 0.047250003 0.008149011 -0.05003446 0.014472243
high -0.028906137 -0.13681683 -0.011038572 -0.0867319 -0.058162548 0.05205884 -0.053184215 -0.048636444 0.11376504 0.011312305 -0.024912803 0.04134718 -0.06356209 0.055627257 0.00987772 -0.008564529
house -0.121412456 0.059436876 -0.09490542 -0.026362816 0.062374234 0.053475562 -0.031045076 0.04950999 0.013707059 0.03475696 -0.02241469 0.07491421 -0.059393216 -0.1622235 0.07098294 -0.03144227
night -0.061442748 0.060916554 -0.04696637 0.05007935 0.124248624 0.024174422 -0.090104036 0.043529008 -0.09038134 0.061263543 0.009560853 0.06654157 -0.03091642 -0.046589866 0.06554265 -0.085188106
during -0.015759718 -0.01553292 -0.04276864 0.029535105 -0.008698753 -0.0796215 0.088545054 0.014665449 -0.033325624 -0.024984699 0.039124873 -0.024640035 0.00031883255 0.057972677 -0.082434654 0.036491238
everyone -0.07211511 0.031370956 -0.03568918 0.045489807 -0.059183273 0.03387124 0.03138426 -0.033098012 0.053781856 0.04646723 0.022320427 -0.007080309 0.023522172 0.008204391 0.045156017 0.024606423
left -0.011322775 -0.05012202 -0.09032181 -0.06986654 0.016883116 0.028045315 0.04019635 0.07606762 0.012109435 -0.06452518 0.0031935323 -0.053589895 -0.0681863 0.03671604 -0.012257105 0.084320605
special -0.054900963 0.021810131 -0.09158967 -0.052694134 0.08959092 0.109350294 -0.0964667 0.003678325 0.13186564 0.07230984 -0.06931191 0.13959017 -0.1182809 -0.108886234 0.1293659 -0.092691824
seeing 0.0019595479 -0.030602226 0.049749218 -0.013058463 -0.028002651 -0.012464418 0.002030201 0.013138397 0.03558073 -0.08876486 0.08631042 -0.07011074 0.021706007 0.088358395 -0.08487105 0.06013482
half 0.061919946 -0.022107705 0.015583454 0.03797804 -0.023145106 -0.042318482 0.011574756 -0.05067015 0.03149287 -0.047508076 0.052595798 -0.05816888 0.03357469 0.03616591 -0.02641945 0.07237886
excellent -0.09954753 0.14403717 -0.14630437 -0.13761118 0.067634 0.16673662 -0.15096863 -0.023422372 0.018010663 0.13259111 -0.20236985 0.15641369 -0.10651537 -0.17718007 0.0999719 -0.18459937
wife -0.05089412 0.09301501 -0.11147399 -0.04528295 0.10424649 0.110800266 -0.08860615 0.01352985 0.052064657 0.036527187 -0.09938548 0.07693131 -0.09139036 -0.055612978 0.046164628 -0.037181012
star -0.079854034 0.024508262 -0.054463495 -0.046027996 0.02278747 0.049817935 -0.061972152 -0.07100122 0.04840851 0.082445554 -0.08262915 0.13239984 -0.027321877 -0.075109996 0.059919342 -0.057800844
shot -0.075558394 0.061906405 -0.015477168 -0.07477686 0.02423998 0.0040563666 -0.0077939704 -0.020061495 -0.05440204 -0.024147952 -0.0075242682 0.043819815 0.045678843 -0.051650174 -0.013827097 0.030363569
war -0.061587255 0.016037615 -0.0050853016 -0.002610921 0.049370967 0.06994687 -0.015747564 0.03311246 -0.042230923 -0.02762947 0.07163953 0.027510634 -0.054968845 0.0039690873 0.0075582666 0.05490328
idea -0.09534743 0.08870626 -0.07474302 0.022756932 0.03650356 0.087661 -0.020349862 -0.054848406 0.019824913 0.113440946 -0.071242705 0.03480489 -0.035225224 -0.055518623 -0.020935236 -0.043121763
nice -0.1131771 0.09380434 -0.13546984 -0.06069506 0.10393566 0.14320415 -0.18762943 0.05363487 0.042361993 0.08393342 -0.19054087 0.07957046 -0.10153144 -0.17381372 0.089408614 -0.17219473
black -0.036041696 0.09516703 -0.08492641 -0.010640956 -0.0049732467 0.02510313 -0.02863 0.024471808 0.060929272 0.049306497 -0.059722662 0.0029774152 -0.025100186 -0.104890734 0.013946755 -0.015683189
less -0.055176266 0.06356483 -0.046528522 0.011017827 0.026791206 0.025701184 -0.031252656 -0.001345105 -0.04709716 0.0816517 -0.07429658 0.08647876 0.07614284 -0.015642514 -0.02292617 -0.056877464
mind -0.16083665 0.12938227 -0.14167696 -0.06984612 0.13467653 0.16077521 -0.20083879 -0.03620719 0.113464154 0.17175935 -0.18210591 0.17336433 -0.13713121 -0.14031278 0.21035159 -0.18781756
simply 0.039798386 0.025027085 0.06979824 0.018105362 -0.03404005 -0.01064328 0.01808079 -0.0363544 -0.019752815 -0.06306893 -0.014257526 -0.012555109 0.06066381 0.0030881849 -0.06144496 -0.0018955275
read -0.003622441 0.007198722 0.035372905 0.07491289 -0.085683845 -0.03996293 0.048228152 -0.047005504 0.057140246 -0.029870337 0.0064955954 -0.056597766 0.100559056 0.017151538 -0.05551725 -0.0031536815
second -0.032387465 -0.023581987 -0.116527736 -0.019534506 0.07841664 0.0006182531 -0.024492182 -0.024323056 -0.035481673 0.06559733 -0.08355204 0.06867874 -0.08764533 0.0018149901 0.014551708 -0.017880682
else 0.02328374 0.03195245 0.0058644633 -0.007565815 0.008743878 -0.059116576 0.006433235 0.042130608 -0.008374672 -0.07511539 0.06959877 -0.017279075 0.07813327 -0.017247511 -0.041373886 0.06097457
you're -0.046273455 0.12265253 -0.13772038 -0.030936452 0.0017665611 0.022891805 -0.064734966 -0.037141852 0.061984066 -0.02366438 0.0015253272 0.075639196 -0.032863688 -0.08056747 0.041224267 -0.051670447
father 0.04228443 -0.058309063 0.097255215 0.0024606227 -0.029685596 0.017275952 0.040440336 -0.09020514 0.030096387 0.049067535 0.0012870063 0.021598406 -0.07771444 -0.013442221 0.061445955 -0.008288793
fan 0.04560582 -0.027698865 0.043863818 0.010915123 -0.018456524 -0.024229717 0.047838613 -0.03308632 -0.062498145 -0.009407754 0.03384755 -0.0023383212 0.0170022 -0.018119205 0.021932373 0.022901922
poor -0.02099227 0.036125526 -2.5060144e-06 -0.019655999 0.016216531 0.036785573 -0.0076777507 0.049197983 0.029337483 -0.039259944 -0.03129373 0.011244887 -0.051899616 0.010517316 -0.043168157 -0.012246513
help -0.048008956 0.0469123 -0.094317876 -0.04705116 0.03387288 0.0839844 -0.044251785 0.011316484 0.04806284 0.033755224 -0.032671966 0.1011988 -0.027018163 -0.025917511 0.030323017 -0.025784206
completely -0.024303745 -0.05786681 -0.024753757 0.03654394 -0.04092701 0.009427262 0.0100060655 0.014999095 -0.04013772 -0.014541868 -0.019371275 0.0036917485 0.021766514 0.052586358 0.02412465 0.029423198
death -0.025556695 0.050556555 -0.09319746 0.038178205 0.05316944 0.013645842 -0.054744832 0.03676578 0.00995067 0.07705057 -0.03496855 0.057340402 0.016432125 -0.030211696 -0.038449343 -0.013569597
3 0.14047454 -0.12627427 0.2154484 0.13114943 -0.21922138 -0.16613933 0.15002868 -0.07261335 0.10413528 -0.18993033 0.14581107 -0.21072212 0.032911733 0.21344432 -0.19601426 0.14494047
used 0.018306378 -0.050550733 -0.04213609 0.033285607 -0.027130133 -0.055582352 0.027806615 0.117899485 -0.036776382 -0.07520788 0.08792663 -0.089413255 0.038985614 -0.021794003 -0.037994515 0.12591296
home -0.015473905 0.02569718 -0.08424496 -0.08875651 0.13584626 0.07303732 -0.06611334 0.06940744 -0.048936747 0.083114654 -0.0073325387 0.077150814 -0.049496762 -0.017989213 0.042626865 -0.07622625
either -0.023174552 0.02124016 -0.050448902 0.07052381 0.07520511 -0.025529832 0.025133139 0.0622906 -0.069971785 -0.0075871027 0.080467336 0.04279447 0.0046400367 -0.09056794 -0.059619606 0.0035439362
short -0.033003837 0.03397753 -0.06346074 -0.03655031 0.13075717 0.10290166 -0.034528285 -0.059278857 -0.004206711 0.08399158 -0.07594843 0.049161628 -0.03073111 -0.023717243 0.05394853 -0.09652047
line -0.04444008 0.008619454 0.010271611 0.032356743 -0.05991415 0.037558634 -0.032450117 -0.050184432 -0.0037421072 0.016362332 -0.020343505 0.034463897 -0.053286627 0.034965172 0.03071607 0.044144087
given -0.065070674 0.018040387 -0.029186476 0.0011265933 -0.046018884 0.03592256 -0.11642844 -0.11289802 0.07670091 0.12909193 -0.0509584 0.089547 -0.043253608 -0.0073234956 0.019657893 -0.10517768
men -0.0567716 0.057993647 -0.035341304 -0.046083514 -0.0010513698 -0.02982986 -0.025294412 0.002710933 0.030765878 0.019575221 -0.030231053 0.050466962 0.03373665 -0.0521923 -0.030133665 -0.013460954
top -0.08528489 0.08967192 -0.035635117 -0.080961235 0.099409856 0.12871839 -0.10606033 0.0063226223 0.108861975 0.15529096 -0.14519891 0.06853817 -0.17138241 -0.12866905 0.17072593 -0.15533175
dead -0.034386158 -0.009505172 -0.07004112 -0.0054765497 -0.042181056 -0.03472236 -0.009967619 0.0067701824 0.016616493 -0.053405505 -0.015463001 0.039175335 0.015174548 0.018621722 -0.047798585 0.023929568
budget 0.011217517 -0.07670775 -0.081979044 0.029474812 0.021925008 -0.051445473 0.09334316 0.11678023 -0.035996642 -0.10953954 0.08034782 -0.02166935 0.1018134 0.05276233 -0.024009908 0.060975883
try 0.031027483 -0.009164755 -0.02464084 0.013930884 0.04779059 -0.05716126 -0.0021359175 0.035600048 -0.026758388 -0.0039177937 -0.023108063 0.055720765 -0.0009879473 0.049448725 -0.00806053 -0.0065987115
performances 0.03457269 -0.09668526 0.12834735 -0.033480804 -0.10803051 -0.008302467 0.031909015 -0.09121169 0.11140916 -0.07186332 -0.023705108 -0.04530621 -0.076048315 0.16305809 -0.007632998 0.021998962
wrong -0.114377595 0.14788052 -0.0826138 -0.12214806 0.065602705 0.11601876 -0.115259774 -0.0017810552 0.080289364 0.14385778 -0.056200404 0.10724752 -0.099873886 -0.1016363 0.12439792 -0.06476136
classic -0.08737463 0.030353364 -0.06738319 -0.06501643 0.045767546 0.046937577 -0.09980644 0.007051774 -0.019591274 0.027717613 -0.04300567 0.051148962 -0.008685304 -0.08361753 0.10228009 -0.048372395
boring -0.0147208 0.018039795 -0.009683893 0.014486232 -0.029010661 -0.037172917 -0.0052380753 -0.053431127 -0.06501925 0.006752684 0.016692165 -0.004970789 0.12511846 -0.024598436 0.0022716513 0.023381388
enjoy -0.09473972 0.13736002 -0.11108901 -0.09080826 0.018926289 0.04803479 -0.12935258 0.029871078 0.032755133 0.0811562 -0.05969609 0.124908626 -0.02937014 -0.07115118 0.07292074 -0.098824665
need -0.047238704 0.08486915 -0.057829026 -0.041800745 0.0027881367 -0.0016548355 -0.038306277 -0.034655746 -0.02840734 0.02764689 -0.032892738 0.04045508 -0.022321967 -0.09976046 0.022050196 0.02364574
rest -0.017257622 -0.03464149 -0.033381354 0.047788437 -0.0687359 -0.047006115 0.020851057 0.05212938 -0.040174805 0.0014474988 -0.020931505 0.027638828 0.07049548 -0.047185488 -0.0032108102 0.032460194
use -0.010332337 0.010422688 -0.052605007 -0.037688337 -0.019369964 -0.008219402 -0.03654623 0.06946899 0.0054785744 0.07066923 -0.025721906 0.037354447 -0.03028192 -0.022762995 0.030108845 -0.010770482
kids -0.073687196 0.088144906 -0.0871565 -0.04178867 0.0706634 0.050696395 -0.059207577 0.034687534 -0.023638034 0.06505936 -0.08838885 0.10208166 0.040720455 -0.10428606 0.03395197 -0.031600635
hollywood 0.03469443 -0.09406129 0.017591937 -0.019273536 -0.017543923 0.00121306 0.018721664 0.0075602713 0.0197255 -0.028280022 0.04908281 -0.05680904 -0.052031185 0.046696506 0.02371398 0.005885332
low -0.101406924 0.13610813 -0.12124018 -0.037997436 0.122041345 0.09240099 -0.12638432 0.03322138 -0.090700045 0.14790754 -0.12832326 0.12026076 -0.037787464 -0.12920007 0.028513474 -0.16036448
production -0.07064391 0.113626115 -0.048141215 -0.015544625 0.058888942 0.01057645 -0.023883054 -0.06759062 -0.02126151 0.12045007 -0.08996631 0.10892894 -0.07306639 -0.16223824 0.07868065 -0.08467633
until -0.0845885 0.17788209 -0.18650122 0.01658834 0.19655731 -0.0020247793 -0.037594415 0.03317798 -0.12687452 0.04072864 -0.0338306 0.067976765 0.022142887 -0.12093594 0.058472883 -0.034151748
along -0.029844303 -0.02454138 0.005965253 -0.03945447 -0.037726402 0.07539273 -0.029392656 -0.055984087 0.07308782 0.05185946 0.0036995404 0.043119367 -0.022339296 -0.013535989 0.01238499 -0.049247846
full -0.08782458 0.1144041 -0.1920671 -0.054847114 0.08241528 -0.03851074 -0.03712062 0.11919929 -0.12292135 0.03395834 0.038595032 0.07997219 0.06106537 -0.10756083 0.018385602 -0.021633182
friends 0.10559908 -0.0126419505 0.094220914 0.059005756 -0.02365185 -0.09906543 0.069318734 -0.07048058 0.03192245 -0.019742139 0.076871224 -0.11313221 0.008625947 0.08307462 -0.09657125 0.10710048
camera -0.082347006 0.057438456 -0.023627931 0.02408332 0.06348917 0.034933805 -0.014941445 0.009325195 -0.061521474 0.070656635 -0.067193046 0.047741134 0.0057219584 -0.079833716 0.050693695 -0.085395396
truly -0.0011229644 -0.018252006 0.06793593 0.07539176 -0.13908087 -0.0068505323 0.0049274913 -0.06664149 0.044341147 -0.066494286 0.0023168076 -0.03534265 -0.06437003 0.1704936 -0.016667066 0.08333648
women 0.110548705 0.0046171765 0.06609419 0.062180836 -0.102759674 -0.053195007 0.026490074 0.0035130344 0.043907233 -0.057551738 0.06509486 -0.056861084 0.12637708 0.11809501 -0.044875253 0.07005809
awful 0.08252847 0.030764736 0.036211975 0.1091641 -0.09898181 -0.10968479 0.14314418 0.16535832 -0.19807748 -0.16842441 0.12954311 -0.064361416 0.1838253 0.069616206 -0.13255388 0.10503697
video -0.1125154 0.16221803 -0.16834863 -0.047648408 0.13107441 0.021006629 -0.08739762 0.038895726 -0.10194922 0.054413144 0.03206293 0.13420103 0.03646384 -0.15445438 0.011919404 -0.06782524
next 0.021723187 -0.020164553 0.041729875 -0.008457354 0.05291053 -0.04451814 0.03335136 -0.0068327673 -0.04415306 0.013676642 -0.035497826 0.02375753 0.06971654 -0.018749548 -0.04090032 -0.009781308
tell 0.035994668 -0.016908316 0.04484857 -0.039000053 -0.028717356 0.006512418 0.019068902 -0.005474569 0.05536733 -0.06830853 0.05828544 -0.011152734 -0.058263462 0.009566274 -0.005452012 0.019051218
remember -0.07382542 0.05190505 -0.028938383 -0.0453363 0.067965515 0.05256531 -0.07466127 -0.052392416 0.077852674 0.06692938 -0.039868586 0.07939169 -0.06145916 -0.07147989 0.10234493 -0.015994377
couple -0.054472025 -0.008179329 -0.01924059 -0.12534551 0.0739789 0.09578491 -0.10218827 -0.021360084 0.12238066 0.10440775 -0.084728435 0.053687207 -0.14880237 -0.029358044 0.13280393 -0.101627655
stupid 0.05554683 0.0018967419 -0.0013202394 0.0032280963 -0.02255117 -0.06269026 0.07181059 0.034204833 -0.0005721214 -0.037151854 0.011965738 0.014105799 -0.025727933 0.015545737 -0.08570546 0.023708794
start 0.04821055 -0.1323228 0.11914463 -0.004946449 -0.097796224 0.044579443 0.030538777 -0.06742127 0.094739474 -0.025831897 -0.021594508 -0.101284236 -0.08351656 0.14629905 -0.020902565 0.045692407
stars -0.014594794 0.07182675 0.04158724 0.022548188 -0.096280985 -0.058836296 0.046612006 -0.051751565 0.011370523 -0.050258107 0.05511772 -0.066344485 0.14092353 0.066676535 -0.006723309 0.10942734
perhaps -0.054623064 0.0018327086 -0.055633973 -0.08632567 0.03555613 0.10771666 -0.07462903 -0.051078092 0.067152455 -0.016752604 -0.019177465 -0.024727931 -0.06896937 0.03533814 0.016181504 -0.043643992
sex -0.059718583 0.07758394 -0.1491514 0.046114407 0.114889294 -0.05444308 0.008514032 0.07939966 -0.1251721 0.0068414705 -0.04070671 0.051228732 0.07999981 -0.04693432 0.012121363 -0.026558181
mean 0.022276046 -0.037602417 0.06584083 0.01503556 -0.0884537 -0.042529274 0.020052856 -0.0036698012 0.0239874 -0.08116135 0.013747674 -0.04036807 0.03305034 0.05716383 -0.044738248 0.071379125
came -0.02714956 -0.014984909 -0.048302595 0.09431745 -0.026895326 -0.06840903 0.07187887 0.08860902 -0.06555963 -0.031988587 0.04927537 -0.06497983 0.07014042 -0.028223367 -0.053801175 0.09414034
recommend -0.06516415 0.044563785 0.018716346 -0.02583332 -0.022869594 0.06990451 -0.06417504 -0.023427665 0.019320235 -0.01319181 -0.06412096 0.00865983 -0.021082662 0.06750521 0.06372091 -0.0076404354
let -0.055961955 0.030725904 -0.11528952 -0.042631593 0.13209346 0.085284926 -0.05209544 0.044424932 -0.039061155 0.06081967 -0.037602425 0.0984429 -0.033961885 -0.0245002 -0.0041112145 -0.004022263
moments -0.010313856 -0.0047791945 0.040675525 0.044560377 0.0021795558 -0.07152026 0.054755818 0.037565365 -0.07382557 -0.034877278 0.06435865 0.009562747 0.011216328 0.027609963 -0.013920029 0.0758176
wonderful -0.051678672 0.08147208 -0.010531175 -0.0042738155 0.014078818 0.08004022 -0.03903185 0.013850612 0.004494989 0.038651075 -0.023166433 0.05478365 -0.093286574 -0.017313795 0.049195822 -0.06076807
episode 0.09891665 -0.05567962 0.08883635 0.067281075 -0.072264135 -0.053220056 0.06944166 -0.061063647 0.08485269 -0.112412214 0.081980616 -0.048561707 -0.03732771 0.1361274 -0.050977267 0.032542545
understand 0.022440813 0.0061546993 0.028807536 0.0019720173 0.013823297 -0.01341235 0.05440628 0.057751853 -0.0007937653 -0.03848079 -0.0025163905 -0.0065313065 0.050983276 0.023701372 -0.038230717 0.036837127
small -0.0047219987 -0.030934611 -0.043834902 0.04346305 -0.016658723 -0.04057916 0.0118751945 0.047453802 -0.0057797963 -0.041788932 0.002879805 -0.03753823 0.060351625 0.060201872 -0.03512729 -0.0027679005
face -0.076262005 0.020707758 -0.010436927 -0.1025589 0.028396042 0.060458995 -0.04520704 -0.013005905 0.073775634 0.10680329 -0.122981824 0.08714765 -0.051722508 -0.04064035 0.12377683 -0.10981009
terrible -0.018109862 0.08070098 0.041029274 0.015104502 -0.12300969 -0.06727079 0.0019749193 -0.06390111 0.061555963 -0.038002342 0.061655615 -0.0013215949 0.09563396 0.12359981 -0.06320294 0.040161
playing -0.051066905 0.04149846 0.0044318773 0.008234314 0.043933976 0.103960894 -0.069388896 -0.025417443 0.027246429 0.06779456 -0.11107975 0.05305139 -0.11260779 0.004955735 0.01896973 -0.052865975
school 0.026811397 -0.007901629 0.0775912 0.06446223 -0.100868516 -0.062225357 0.008551305 -0.07763705 0.06595225 -0.041821107 0.055973154 -0.027463622 -0.009919726 0.0914808 -0.073820546 0.08103697
getting -0.023709148 0.0087227365 -0.0173668 0.019168107 -0.028420437 -0.024724577 -0.01997364 -0.061735827 0.022485558 0.00055942487 -0.0222335 0.023020886 -0.028345525 -0.019655045 0.010466783 -0.035678975
written 0.01305963 -0.05455545 -0.011000846 0.07099154 -0.037504222 -0.081586175 0.05357426 0.08582202 -0.09579142 -0.064571485 0.08824167 -0.11751101 0.12016478 0.08770631 -0.10373558 0.11376586
doing 0.037104413 -0.015963936 0.07840212 -0.007346578 -0.04146899 -0.054613207 0.02713517 -0.14000788 0.10398384 0.010440124 0.01561622 -0.07498161 0.033641074 0.011329535 -0.007897605 -0.019086307
often -0.06814432 0.055498958 -0.08990176 -0.10961581 0.07788771 0.14750275 -0.12563546 -0.05905015 0.07181544 0.07695005 -0.10317318 0.1364685 -0.114869855 -0.07752905 0.14298694 -0.099282674
keep -0.033482496 0.044547364 -0.004250131 0.025188902 0.010687986 -0.06452787 0.07072866 0.008279549 -0.092784755 -0.016394509 0.07810033 -0.0505173 0.09222043 0.012570276 -0.079530634 0.04076045
early -0.039470892 -0.042000458 -0.04069934 -0.0109243365 -0.015794653 0.05919971 0.016469404 -0.007764336 -0.02956374 0.05968526 -0.054340377 -0.0063784583 0.008233243 0.027136412 0.024575109 -0.018290212
name 0.02118652 -0.03953789 0.014584601 0.01582687 -0.026749872 -0.0659232 0.018443383 0.057860274 -0.070244014 0.009949803 0.09884733 -0.066270456 0.058819357 -0.0011140485 -0.027798785 0.02017653
perfect -0.041456982 0.0089324415 -0.017755697 0.04487787 -0.054018915 0.033854637 0.0009788643 0.052757386 0.006110145 0.019171005 0.02408318 0.011209328 -0.031149078 -0.03554014 -0.015060127 -0.07201727
style -0.15484573 0.09669932 -0.15087277 -0.033570435 0.08084496 0.11666689 -0.10914357 0.021601819 -0.038371045 0.14048523 -0.05743908 0.07793228 -0.084229484 -0.1256006 0.13280822 -0.14206329
human -0.054041736 0.08243426 -0.031073853 -0.053924326 0.01429728 0.008224199 -0.001957648 0.026264172 -0.015379964 0.0007054158 0.02335783 -0.023983136 -0.017621811 -0.041920457 0.0813997 -0.030172653
definitely -0.013326253 0.007729402 -0.02274343 -0.05047129 -0.078107014 0.08269337 -0.08230538 -0.16454723 0.10379489 0.086657286 -0.030098127 -0.010620905 -0.09821508 0.038120333 0.109063275 -0.028717974
gives -0.09470123 -0.008038304 -0.098780476 0.011633354 0.04545859 0.011328906 -0.052130964 -0.03888211 -0.036341485 0.07353861 -0.04682789 0.0067947106 -0.064377695 -0.039674234 0.07384242 -0.0150165595
others 0.03294494 -0.097868636 0.1044935 0.08470752 -0.080791 -0.061891615 0.039206285 -0.009481077 0.009297941 -0.09840563 0.04450492 -0.08552414 0.062464993 0.10500831 -0.08396878 0.05220736
itself 0.121686175 -0.07932876 0.058349457 0.04944825 -0.18059212 -0.09691168 0.047177725 -0.07198575 0.042261608 -0.05700311 0.10353509 -0.11240786 0.033414565 0.08544392 -0.080243826 0.13653025
lines 0.05841651 -0.087686785 0.091887295 0.084088616 -0.07414379 -0.10040759 -0.003969738 -0.1147996 0.033531386 -0.031794474 0.015863793 -0.10454278 0.030430915 0.1206367 -0.04178364 0.069312155
live -0.046536595 0.043161895 0.007363948 -0.059837498 0.019895988 0.067888245 -0.068295665 -0.08512888 0.021402694 0.05623837 0.020991687 0.043745227 -0.052308246 0.037948973 0.094641574 -0.0044024377
become -0.028095262 0.020774314 -0.083759986 -0.09205185 -0.01277434 0.16316561 -0.13326588 -0.07201975 0.13365154 0.08537208 -0.09570275 0.041416317 -0.116664946 -0.037895452 0.1359048 -0.10886915
dialogue -0.007268938 0.13495412 -0.13774647 0.08777793 0.049555518 -0.020983662 0.047265995 0.062673576 -0.15455955 0.04016205 -0.018080624 0.0481862 0.11247048 -0.014101489 -0.03894519 0.0376318
person -0.032449156 0.029086098 -0.044061 0.02016492 -0.011359092 -0.008733367 -0.078128904 -0.06675607 0.045390125 0.052736193 -0.040172216 0.07680533 -0.082488395 -0.06774307 0.045273773 -0.022508979
lost -0.024451418 0.039773848 -0.08418401 -0.06187954 0.052178457 0.0049309134 -0.05701047 -0.0016805023 -0.040006395 -0.011274383 0.029174807 0.077897444 -0.016581276 -0.081372015 0.076758176 -0.010718582
finally -0.027057124 3.827642e-05 0.04881323 -0.03235173 -0.0036159514 -0.0192563 -0.070147015 0.017751297 -0.0138156945 0.03479992 -0.08899107 0.070751525 -0.071632884 -0.05692075 0.060496937 -0.08911967
piece 0.08620322 -0.027266525 0.07305015 0.15326287 -0.17285104 -0.10030912 0.08418082 0.07429769 -0.043644786 -0.11089981 0.12929316 -0.09656109 0.119075954 0.092403404 -0.10141756 0.19450565
head 0.03229358 -0.114874214 0.08931762 0.14044103 -0.14905722 -0.14967884 0.091914 0.08058234 -0.09364853 -0.12989497 0.16840331 -0.1531218 0.03350597 0.09682151 -0.07736609 0.14286856
case 0.072813116 -0.03792362 0.03249072 0.0806087 -0.037838504 -0.06844446 0.011920084 0.015479159 -0.039575152 -0.038775172 0.095033996 -0.015557225 0.15969256 0.04709311 -0.03899369 0.069494076
felt -0.07599485 0.042435106 -0.01573386 -0.034562968 -0.002700508 0.0283389 -0.07691037 -0.025020763 0.10430925 0.062252406 -0.032404542 0.000705975 -0.053758096 -0.08944323 0.04058294 -0.10472575
yes -0.058339953 0.04586959 -0.03890631 -0.15091437 0.00921347 0.07006819 -0.09179452 -0.09569754 0.08772914 0.100422114 -0.13729258 0.055893697 -0.15686668 -0.040264264 0.11155291 -0.13625868
liked -0.02490231 0.037056655 0.027046753 -0.047046736 -0.10204376 0.10056023 -0.019939994 -0.04345744 0.08409796 0.057754572 -0.079125 0.009645878 -0.10902938 -0.055792913 0.0020498557 -0.08822416
supposed -0.044132758 0.062000494 -0.04837521 0.101053014 0.008251501 -0.027133575 0.057400472 0.1655972 -0.08470805 -0.04037689 0.07157747 -0.0044923867 0.060608074 -0.04313231 -0.05600438 0.069184996
title -0.09625326 0.121732384 -0.10244842 0.054336768 0.030094076 -0.06963265 0.007145327 0.062127434 -0.099959865 -0.012770629 -0.0051784287 -0.014882854 0.110913984 -0.1355916 -0.034115944 0.014539067
couldn't -0.057347152 0.0059960303 -0.023919467 0.018838102 -0.052474044 0.018198641 0.0025980596 0.058953706 -0.00014357793 -0.03423259 0.10636811 -0.039653152 0.014459127 0.030563658 -0.061571326 0.08509995
absolutely 0.004649631 -0.018261077 0.014714012 0.015836217 -0.113831155 -0.04902786 -0.007959384 -0.017448055 -0.022952154 -0.040391926 -0.012796085 -0.05974151 0.024488805 0.0067522163 -0.004029681 -0.0056395144
white -0.09985725 0.09008724 -0.13130105 0.012254018 0.01703941 0.08447947 -0.08850658 -0.016110256 0.03560263 0.041537475 -0.05215002 0.069254145 -0.0012644875 -0.07616643 0.045847114 -0.0651412
against 0.028137742 -0.069874436 0.016230294 -0.07740455 0.043741032 0.11516095 -0.048049107 -0.048994604 0.058956604 0.060688205 -0.11506113 0.059419148 -0.07656828 -0.05212272 0.12738247 -0.12006019
boy -0.03989173 -0.034621887 0.007858579 -0.027151354 -0.02392254 0.014590897 -0.012684886 -0.003516955 0.06213824 0.0683334 -0.09391728 0.02805634 -0.09657275 0.007159118 0.028689979 -0.05831023
picture -0.0037387235 0.038338974 0.06711411 -0.034090467 -0.08229879 0.10292075 -0.07811918 -0.1197388 0.10270196 0.04538893 -0.11627614 -0.013364707 -0.072668426 -0.01032134 0.06181825 -0.10404957
sort -0.016212942 0.08045457 0.009095409 0.028760865 0.0076210597 0.056979954 -0.022542302 -0.0068528373 0.029292034 0.04999114 -0.07388809 0.08954619 -0.07312443 -0.022754874 0.06576795 -0.024109332
worse -0.064308114 0.03332875 0.008774052 0.0150730945 0.04462947 0.0052572936 0.037263684 0.023215322 -0.045840487 0.0031681228 0.0024348537 0.008915607 0.03612291 0.023854997 0.012126695 0.062150873
certainly -0.05704217 0.09995934 -0.09071738 -0.039788853 0.12116666 0.14070396 -0.11094842 -0.1278329 0.042803355 0.16675863 -0.1719434 0.13054284 -0.039067037 -0.100500636 0.091697074 -0.11464413
went -0.037464734 0.0026594906 0.08893986 0.026652439 -0.07775733 -0.080463484 0.014630324 -0.028736155 0.03536942 -0.030061485 0.0363 -0.060893685 0.06823798 0.095981985 -0.067868546 0.10928679
entire -0.0040249117 0.010163955 -0.03909481 -0.02096333 0.013761288 -0.0075822575 0.0345333 0.12645175 -0.08422346 -0.04342313 0.08775963 -0.040377285 0.10476281 -0.025756272 -0.05156077 0.09334258
waste -0.07783681 0.026863435 0.029367216 0.11220887 -0.090091296 -0.18820415 0.116438046 0.2848352 -0.12926252 -0.063489355 0.15276727 -0.08333469 0.25237978 0.02755773 -0.13183998 0.13854067
cinema -0.016274199 0.02287012 0.059069052 -0.031188816 -0.038960036 -0.0027502582 -0.012674897 -0.028806947 0.08655204 -0.007318481 -0.060744513 0.010628672 0.07868815 0.01657464 0.030244537 0.028013077
problem -0.007899407 0.035618126 -0.039611973 -0.05463761 0.01294141 0.07920351 -0.10464614 -0.072147734 0.072451346 0.069259785 -0.050572775 0.06829673 -0.11801592 -0.06421753 0.005677123 -0.08388836
hope -0.07708536 0.034488525 -0.11646203 -0.033439375 0.021660665 0.009410768 -0.06416243 0.01794979 0.01011982 0.04113186 -0.044098053 0.07912639 0.0084279245 -0.10474675 -0.01858419 -0.023064127
entertaining -0.111909956 0.120536506 -0.10808684 -0.02126034 0.051468812 0.09736212 -0.018705707 -0.049395338 0.0696701 0.08309378 0.013672652 0.00021994178 -0.08416188 -0.0663328 0.06614222 0.000828824
she's -0.034778453 0.0328479 -0.081814714 0.015884418 0.036973286 0.018183043 0.05356248 0.06437216 -0.0325959 -0.043136895 -0.0068649626 -0.039577328 0.035703953 -0.072187886 -0.04162003 -0.0013783948
mr 0.053357318 -0.025666509 0.010535397 0.0075866804 -0.055309445 -0.01681802 0.019290345 0.029798267 0.016145196 -0.04864684 -0.024028964 0.012197995 -0.023240501 0.04562386 -0.024417484 0.04877237
overall -0.057391565 8.921593e-05 -0.019300371 0.040298373 -0.079756126 0.002812603 0.031014232 0.046897046 -0.04708427 -0.0183716 -0.007929459 0.008418696 0.0032377827 -0.04791462 -0.07399339 0.0018447142
evil 0.03010024 -0.049341705 -0.0011050123 -0.00625137 -0.03737052 0.06380492 -0.068396494 -0.01962488 0.064973734 0.024025992 -0.03440234 0.04653456 0.01768895 0.029255414 -0.020835306 -0.02670146
called 0.044642597 -0.050415147 0.079728894 0.041693702 -0.09374015 -0.0024184433 0.087793 -0.0061862306 0.013399385 -0.1143192 0.08000674 -0.08625296 -0.04650243 0.10650665 -0.10379988 0.0679186
loved 0.095470145 -0.08837824 0.07852911 0.06594419 -0.13272738 -0.0938667 0.080735266 0.12369153 -0.08900585 -0.041519303 0.110524155 -0.057250787 0.010695099 0.070193276 -0.079760686 0.1199095
based 0.046780966 -0.15068913 0.12369562 -0.08411341 -0.05119494 0.058808915 0.06978503 0.011004456 0.042490594 -0.05547327 0.050381385 -0.07610745 -0.049432784 0.13349424 -0.0076140603 0.01872821
oh -0.08449774 0.12347217 -0.13132077 -0.03748557 0.066396944 0.08686535 -0.017680384 -0.060863715 0.018293472 0.08185951 -0.057591293 0.101258926 -0.075072214 -0.07021954 0.0070114634 -0.038526803
several -0.009994328 -0.013698936 -0.019863319 -0.012851972 0.027758209 -0.034893252 -0.00013624252 -0.042931687 0.012076337 -0.053545527 0.012659923 -0.059535857 0.040074907 0.047043476 -0.008051766 -0.0029832318
fans -0.0033016382 0.003453798 0.038501307 -0.034510903 -0.13514005 -0.024861643 -0.029102102 -0.12687886 0.095572144 0.021055281 -0.02932669 -0.013878409 -0.07765908 0.007818394 0.05140235 0.0007280758
mother -0.03560255 0.03495991 -0.08522149 -0.06034464 0.062111773 0.053249016 -0.057304982 0.026810471 0.044295352 0.07445552 -0.0476046 0.0187671 -0.02910711 -0.05060058 0.055396322 -0.041613497
drama 0.012610949 -0.043051258 0.011322308 -0.028824667 -0.10954463 0.0066909185 -0.0013756137 -0.07095241 0.032040842 -0.07378648 0.012314318 -0.085338086 -0.036335204 0.02002469 -0.035952754 0.05169498
beginning -0.08187983 -0.027201978 -0.042822916 -0.10606892 -0.013609637 0.09983385 -0.15717621 -0.046034325 0.071479596 0.06821109 -0.057882726 0.013970565 -0.16500226 -0.0746009 0.10788714 -0.07200234
killer -0.052589852 -0.0029608558 -0.0041486896 0.02520008 0.011943349 0.011660827 -0.028710185 0.004901459 0.033844825 0.051001757 0.016057702 0.066852435 0.03896799 -0.08404813 0.052115805 0.009494657
lives 0.07935298 -0.052769154 0.030424207 0.06539953 -0.069420174 -0.047876403 0.0667646 0.01658242 -0.02388438 -0.059512906 0.0674351 -0.060915537 0.02954275 0.09784537 -0.07204238 0.034312014
5 -0.108524926 0.12349051 -0.047876917 -0.08209902 0.02060411 0.11407742 -0.1052694 -0.031680916 0.10464838 0.048600208 -0.054694004 0.033158522 -0.093689635 -0.08715091 0.11213753 -0.09058336
direction 0.021755721 -0.057367902 0.07635455 0.02699474 -0.10211403 0.014831305 0.044533867 -0.09304581 0.049357798 -0.039967332 -0.00829086 -0.004055157 -0.009971347 0.12124271 -0.0005942684 0.0026171317
care -0.01736954 0.048816096 -0.011493099 0.05080163 -0.038209558 0.0033691816 -0.02299729 0.025008285 -0.043005727 0.021430874 0.027609145 -0.027823173 -0.023937874 -0.0015175852 -0.024811588 -0.020651784
already -0.02404694 0.048606724 0.033169467 -0.031045165 -0.05095414 0.025400328 -0.034290127 0.022995017 0.06384722 -0.028312553 -0.010064137 0.016270222 -0.009930518 -0.04888797 -0.003197422 0.015777655
becomes -0.053922553 0.10352049 -0.10066987 -0.025614534 0.089154445 0.0233489 -0.080609225 0.019422505 -0.0032514967 0.09371428 -0.05321043 0.066699415 -0.032500602 -0.038706686 0.033449322 -0.005474082
laugh 0.07566082 -0.0018332204 -0.046986036 0.00626962 -0.021569872 -0.07980151 0.057847247 0.033183817 -0.09404917 -0.017203983 0.052903306 -0.012790803 0.0084497165 0.06339668 -0.020385452 0.057176866
example -0.043787155 0.00985097 0.022041624 -0.11767911 0.043121833 0.05780221 -0.018502122 -0.0757375 0.030453544 0.08645699 -0.106468886 0.04431065 -0.07711999 -0.002178422 0.10942231 -0.0586609
friend -0.12783056 0.12491426 -0.10991253 -0.15414144 0.077933885 0.18642975 -0.18428762 -0.07616452 0.08661945 0.16836134 -0.137433 0.09030523 -0.116850354 -0.11352764 0.13465041 -0.18068822
dark -0.07298583 -0.03476134 0.031171842 -0.07611933 -0.04991235 0.060416248 -0.056252692 -0.099859774 0.051598232 -0.031667117 -0.056429416 0.0043504587 -0.069944024 0.0023053584 0.030691829 -0.06418675
despite -0.038661316 -0.07778774 -0.022923084 -0.029457327 -0.005845518 -0.0051591494 -0.013210386 -0.061534904 0.04535449 0.033051126 0.020927388 0.00062072615 -0.057200085 -0.010784673 0.016438603 -0.035911407
under -0.019174209 -0.05164916 0.054578345 0.01483075 -0.01102129 0.09436776 -0.08316128 -0.0119075505 -0.026376503 0.06372777 0.003244344 0.052180402 -0.07602199 -0.03816473 0.018846821 -0.048207026
seemed 0.029662568 -0.038065698 0.077111505 -0.09278514 -0.03687372 0.09972099 -0.1048349 -0.10875988 0.12585957 0.023634909 -0.06573431 0.010919239 -0.13960809 0.015828574 0.07151824 -0.09699542
throughout -0.020627122 -0.008944419 -0.015824165 -0.07983959 0.02967362 0.09654471 -0.027845155 -0.03859187 0.03552286 0.04514686 -0.06159653 0.015024426 -0.09056869 -0.06919797 0.026925188 0.004401337
4 0.08474975 -0.03968557 0.21396682 0.13567251 -0.2533855 -0.12351109 0.12720099 -0.12909018 0.04833393 -0.17143004 0.09061846 -0.18407884 0.08594549 0.10706923 -0.1501339 0.16453889
turn -0.051850136 0.0151576195 -0.08230659 0.017738372 0.034560785 -0.009173346 -0.036049195 0.034217443 -0.021530403 -0.04673979 -0.0011789575 0.0075696204 0.059252158 -0.009965873 0.01949379 0.010842498
unfortunately -0.04806529 0.09170154 -0.020768737 -0.025767865 0.019531924 -0.007957318 -0.011316607 0.0069207647 0.04971636 0.025162304 -0.046886623 0.078806765 -0.0068125855 -0.039793827 0.054994583 -0.001637542
wanted -0.015690874 -0.03463518 0.026158107 0.12533025 -0.10173931 -0.089718 0.07467718 0.09733848 -0.03285493 -0.02645796 0.11519753 -0.011179184 0.07254164 0.03925244 -0.059473917 0.07308382
i'd -0.1143004 0.10847168 -0.07567903 -0.1720429 -0.01142437 0.20655501 -0.14693436 -0.08342711 0.19050361 0.14759377 -0.17367615 0.15477523 -0.183474 -0.15811531 0.16823861 -0.12240883
 -0.079146 0.071468525 -0.088766545 -0.00659625 -0.005845887 0.05010874 -0.024455277 -0.014608123 -0.034346126 0.059694823 -0.04878185 0.079071 0.012681273 -0.05686924 -0.014542848 -0.012380392
children -0.0831426 0.10899731 -0.010302879 -0.076292574 0.068162404 0.04244396 -0.041270938 -0.00537296 0.009739872 0.014082016 -0.034840483 0.04568404 -0.0066468795 -0.07341865 0.0747234 -0.08771324
final -0.065183274 0.06306886 -0.004013271 -0.04439493 -0.0029501582 0.032404065 -0.078419656 -0.10893573 0.056500494 0.047728825 -0.12407661 0.032518443 -0.096625365 -0.02916808 0.06373357 -0.09036937
fine -0.17436849 0.11716497 -0.12759781 -0.14057042 0.06328549 0.17457534 -0.14384532 -0.12787543 0.06184056 0.19228531 -0.17307304 0.12499282 -0.13133524 -0.13407035 0.12754385 -0.21183068
history 0.015045976 -0.022691105 0.11650339 -0.024799058 -0.1225542 -0.060300298 0.04855481 -0.13242193 0.011920472 -0.042045653 0.09584546 -0.017979138 0.0029148776 0.08473293 -0.005058598 0.03111912
amazing -0.12475431 0.10561353 -0.07862894 -0.058702465 0.04645885 0.025121884 -0.10662027 -0.045497615 -0.035688113 0.13088137 -0.08884442 0.08197741 0.007991635 -0.13282819 0.087471515 -0.094994105
sound -0.13704279 0.07269986 -0.07887252 -0.0401307 0.08895109 0.04214901 -0.124160565 0.008975605 0.024499197 0.03511686 -0.046199832 0.04697594 0.03226327 -0.10638975 0.0855745 -0.12750675
guess 0.05533101 -0.045982912 0.064999096 0.06913517 -0.07031546 -0.110004626 0.16490428 -0.01787883 -0.055807475 -0.1454457 0.12957218 -0.05482592 0.09767575 0.015988456 -0.06887788 0.18076359
heart -0.101902574 0.055712286 -0.014431633 -0.0696605 0.073200956 0.106157966 -0.036319353 0.016592337 0.03917277 0.050628427 -0.1078554 0.057966378 -0.037229754 -0.08247978 0.076173335 -0.10928309
totally 0.010980779 0.030203005 -0.16495632 0.040956117 0.11169661 -0.022117624 -0.009547495 0.12717862 -0.08954087 0.0359939 0.031612076 0.045875333 0.041062668 -0.08435161 -0.029708587 0.05139985
lead 0.04216654 -0.05050316 0.069622345 0.030433552 0.032944836 0.0072601996 0.018735047 0.014736333 0.06840879 -0.014116417 0.020612825 0.04005943 -0.0556726 0.027464565 -0.022374865 0.00988049
humor -0.07506105 0.093175836 -0.10692953 -0.068334065 0.09849978 0.048232403 -0.068867646 -0.05059409 -0.033124413 0.12904517 -0.097578846 0.10574897 -0.09177045 -0.0722967 0.14826617 -0.04947658
writing -0.0713509 0.13154522 -0.11037095 -0.04756865 0.109247826 0.046573576 -0.016910525 0.009893253 0.05095169 0.07169104 -0.001767162 0.093020335 -0.051305033 -0.10046735 0.013115435 0.010318956
michael -0.11334989 0.14484519 -0.04633358 -0.045587413 0.06689985 0.030985959 -0.06642142 -0.10771949 0.10507101 0.048751447 -0.05101921 0.10028994 -0.014834172 -0.02786037 0.015824158 -0.110665284
quality -0.05378678 0.11953757 -0.08645059 -0.052530967 0.14022684 0.028139351 -0.053043142 0.063031286 -0.083900996 0.068404265 0.015235282 0.067221515 0.04418988 -0.059571628 0.004576596 -0.026648078
you'll -0.07700267 0.065324195 -0.11191665 0.0073067136 0.04516412 0.023040025 -0.016590957 0.11194951 -0.0631039 0.020892875 0.03121511 0.0738599 0.025177836 -0.035257652 -0.027918112 0.018541036
close -0.22021608 0.21811862 -0.16730878 -0.12257869 0.13154052 0.14564018 -0.1713368 -0.18297549 0.080081865 0.16613881 -0.22950329 0.17276043 -0.040221155 -0.19895089 0.1681781 -0.19430637
son 0.0018422786 0.0071554813 -0.06375952 -0.054197896 0.054113735 0.040600117 -0.03406105 -0.00082646846 -0.007434176 0.049341127 -0.041992348 0.023830578 0.008614143 -0.06315662 0.007459176 -0.07865668
guys -0.06821367 0.083725385 -0.024432974 -0.044653215 0.058586504 0.06802202 -0.026318938 -0.0058641084 0.089651145 0.030534316 -0.053749755 0.096441224 0.00968666 -0.07614496 0.021277376 -0.019070702
wants 0.043874905 0.0121833645 -0.024931327 -0.06968893 -0.011395468 0.06749906 -0.008589815 -0.050416417 0.006908537 -0.024957873 -0.07192486 -0.004576473 -0.08748688 0.0049999338 0.017456044 -0.0009399289
works -0.09282324 0.10947568 -0.06768773 -0.08145734 0.06325998 0.11757835 -0.11047306 0.0019665938 -0.0074630594 0.07490727 -0.08505578 0.11680371 -0.07268024 -0.10077051 0.10559843 -0.048628006
behind -0.049252786 0.04041659 -0.015839985 0.008756872 -0.02304275 0.0065662283 -0.037755806 -0.013910143 0.034650244 0.023171708 0.026017312 0.034126393 0.013710944 0.041552342 0.0022272796 -0.019543193
tries -0.011205807 -0.0068643955 -0.10097629 -0.020045165 0.066099 -0.05342052 0.005253721 0.061104298 0.015722902 -0.021817515 0.010610021 0.016278211 0.0026657917 -0.031800844 -0.0096989 0.05817385
art 0.089870416 -0.04527762 0.07894053 0.047726348 -0.09121254 -0.05444348 0.088867456 -0.040682882 0.052726723 -0.054878473 0.062136356 -0.12658687 0.06705263 0.06207805 -0.014630309 0.10296126
side 0.026851831 -0.10388537 0.10452723 0.021157306 -0.08826269 -0.017472366 -0.013819049 0.009772851 -0.0009494873 0.01460645 -0.0015982732 0.009289967 -0.024662362 0.07579748 0.00045738614 0.039070588
game -0.116638914 0.08241348 -0.112639174 -0.0035461546 -0.007002556 0.056959722 -0.014585661 0.00016323953 0.011686044 0.042098004 -0.045466177 -0.006439444 -0.012313603 -0.0649841 -0.00951142 -0.054052964
past 0.04483603 -0.014069739 0.07799861 0.0033728327 -0.014684562 -0.0982225 0.050760336 -0.080462486 -0.020943316 -0.029933024 0.000996585 -0.105516635 0.023408966 0.052581944 -0.08917241 0.070141844
able -0.095264226 0.023317799 -0.01693586 -0.12259746 0.06671176 0.104005575 -0.1199017 -0.040278327 0.08319564 0.11718474 -0.121621035 0.07138845 -0.085660584 -0.08001156 0.11734679 -0.06819644
b -0.03953344 0.09905924 -0.11819427 -0.02896487 0.03785698 0.056819778 -0.025496788 0.03005507 -0.010960033 0.05760802 -0.10128367 0.036542296 -0.03421735 -0.013518395 0.036537603 -0.0074670753
